{"learner":{"attributes":{"scikit_learn":"{\"_estimator_type\": \"regressor\"}"},"feature_names":["age","num_people","mentioned_medical","mentioned_violence","mentioned_fire","mentioned_vehicular","mentioned_mental_health","mentioned_natural_disasters","mentioned_environmental_hazards","mentioned_suspicious_activity","mentioned_urgency"],"feature_types":["int","int","int","int","int","int","int","int","int","int","int"],"gradient_booster":{"model":{"gbtree_model_param":{"num_parallel_tree":"1","num_trees":"100"},"iteration_indptr":[0,1,2,3,4,5,6,7,8,9,10,11,12,13,14,15,16,17,18,19,20,21,22,23,24,25,26,27,28,29,30,31,32,33,34,35,36,37,38,39,40,41,42,43,44,45,46,47,48,49,50,51,52,53,54,55,56,57,58,59,60,61,62,63,64,65,66,67,68,69,70,71,72,73,74,75,76,77,78,79,80,81,82,83,84,85,86,87,88,89,90,91,92,93,94,95,96,97,98,99,100],"tree_info":[0,0,0,0,0,0,0,0,0,0,0,0,0,0,0,0,0,0,0,0,0,0,0,0,0,0,0,0,0,0,0,0,0,0,0,0,0,0,0,0,0,0,0,0,0,0,0,0,0,0,0,0,0,0,0,0,0,0,0,0,0,0,0,0,0,0,0,0,0,0,0,0,0,0,0,0,0,0,0,0,0,0,0,0,0,0,0,0,0,0,0,0,0,0,0,0,0,0,0,0],"trees":[{"base_weights":[8.3044675E-8,-6.648341E-1,1.537429E-1,-8.686939E-1,1.5599433E-1,-5.3424127E-2,1.3724433E-1],"categories":[],"categories_nodes":[],"categories_segments":[],"categories_sizes":[],"default_left":[0,0,0,0,0,0,0],"id":0,"left_children":[1,3,-1,5,-1,-1,-1],"loss_changes":[1.8398434E2,5.9805107E1,0E0,5.4191475E1,0E0,0E0,0E0],"parents":[2147483647,0,0,1,1,3,3],"right_children":[2,4,-1,6,-1,-1,-1],"split_conditions":[1E0,4.8E1,1.537429E-1,1E0,1.5599433E-1,-5.3424127E-2,1.3724433E-1],"split_indices":[2,0,0,3,0,0,0],"split_type":[0,0,0,0,0,0,0],"sum_hessian":[8.8E1,7.3E1,1.5E1,7E1,3E0,6.7E1,3E0],"tree_param":{"num_deleted":"0","num_feature":"11","num_nodes":"7","size_leaf_vector":"1"}},{"base_weights":[4.4222656E-3,-6.161797E-1,1.5535687E-1,-1.2062749E0,1.4633815E-1,-6.4893596E-2,1.16398446E-1],"categories":[],"categories_nodes":[],"categories_segments":[],"categories_sizes":[],"default_left":[0,0,0,0,0,0,0],"id":1,"left_children":[1,3,-1,5,-1,-1,-1],"loss_changes":[1.7328857E2,1.60331E2,0E0,2.4063614E1,0E0,0E0,0E0],"parents":[2147483647,0,0,1,1,3,3],"right_children":[2,4,-1,6,-1,-1,-1],"split_conditions":[2E0,1E0,1.5535687E-1,1E0,1.4633815E-1,-6.4893596E-2,1.16398446E-1],"split_indices":[1,2,0,3,0,0,0],"split_type":[0,0,0,0,0,0,0],"sum_hessian":[8.8E1,7.4E1,1.4E1,6.4E1,1E1,6.3E1,1E0],"tree_param":{"num_deleted":"0","num_feature":"11","num_nodes":"7","size_leaf_vector":"1"}},{"base_weights":[8.169793E-3,1.3884859E0,-1.3723278E0,2.1157656E0,6.61565E-2,-1.9314896E0,-6.999546E-1,1.3073015E-1,8.723797E-3,-2.1463333E-2,1.26061E-1,-1.3535416E-1,-7.9245396E-2,5.5045813E-2,-4.6754375E-2],"categories":[],"categories_nodes":[],"categories_segments":[],"categories_sizes":[],"default_left":[0,0,0,0,0,0,0,0,0,0,0,0,0,0,0],"id":2,"left_children":[1,3,5,7,9,11,13,-1,-1,-1,-1,-1,-1,-1,-1],"loss_changes":[1.7149702E2,4.3136673E1,1.556649E1,2.762706E1,2.1759298E1,2.160881E0,1.0345222E1,0E0,0E0,0E0,0E0,0E0,0E0,0E0,0E0],"parents":[2147483647,0,0,1,1,2,2,3,3,4,4,5,5,6,6],"right_children":[2,4,6,8,10,12,14,-1,-1,-1,-1,-1,-1,-1,-1],"split_conditions":[1E0,1E0,3.3E1,1E0,4.2E1,2.8E1,3.4E1,1.3073015E-1,8.723797E-3,-2.1463333E-2,1.26061E-1,-1.3535416E-1,-7.9245396E-2,5.5045813E-2,-4.6754375E-2],"split_indices":[9,8,0,5,0,0,0,0,0,0,0,0,0,0,0],"split_type":[0,0,0,0,0,0,0,0,0,0,0,0,0,0,0],"sum_hessian":[8.8E1,4.4E1,4.4E1,2.8E1,1.6E1,2.3E1,2.1E1,2.2E1,6E0,1.4E1,2E0,5E0,1.8E1,2E0,1.9E1],"tree_param":{"num_deleted":"0","num_feature":"11","num_nodes":"15","size_leaf_vector":"1"}},{"base_weights":[8.185432E-3,-5.678644E-1,1.4439446E-1,-7.063152E-1,1.4951967E-1,-3.8292903E-2,8.9519255E-2],"categories":[],"categories_nodes":[],"categories_segments":[],"categories_sizes":[],"default_left":[0,0,0,0,0,0,0],"id":3,"left_children":[1,3,-1,5,-1,-1,-1],"loss_changes":[1.4927783E2,3.9060432E1,0E0,1.2223412E1,0E0,0E0,0E0],"parents":[2147483647,0,0,1,1,3,3],"right_children":[2,4,-1,6,-1,-1,-1],"split_conditions":[2E0,1E0,1.4439446E-1,1E0,1.4951967E-1,-3.8292903E-2,8.9519255E-2],"split_indices":[1,3,0,6,0,0,0],"split_type":[0,0,0,0,0,0,0],"sum_hessian":[8.8E1,7.4E1,1.4E1,7.2E1,2E0,7.1E1,1E0],"tree_param":{"num_deleted":"0","num_feature":"11","num_nodes":"7","size_leaf_vector":"1"}},{"base_weights":[1.1654144E-2,1.3060825E0,-1.2830333E0,1.089404E0,1.6273431E-1,-1.8147713E0,-6.446356E-1,4.214726E-2,1.3723055E-1,-1.2811887E-1,-7.415854E-2,5.1442605E-2,-4.317135E-2],"categories":[],"categories_nodes":[],"categories_segments":[],"categories_sizes":[],"default_left":[0,0,0,0,0,0,0,0,0,0,0,0,0],"id":4,"left_children":[1,3,5,7,-1,9,11,-1,-1,-1,-1,-1,-1],"loss_changes":[1.5082907E2,1.5454254E1,1.410585E1,1.4819942E1,0E0,2.1493149E0,8.9435215E0,0E0,0E0,0E0,0E0,0E0,0E0],"parents":[2147483647,0,0,1,1,2,2,3,3,5,5,6,6],"right_children":[2,4,6,8,-1,10,12,-1,-1,-1,-1,-1,-1],"split_conditions":[1E0,5.5E1,3.3E1,1E0,1.6273431E-1,2.8E1,3.4E1,4.214726E-2,1.3723055E-1,-1.2811887E-1,-7.415854E-2,5.1442605E-2,-4.317135E-2],"split_indices":[9,0,0,3,0,0,0,0,0,0,0,0,0],"split_type":[0,0,0,0,0,0,0,0,0,0,0,0,0],"sum_hessian":[8.8E1,4.4E1,4.4E1,4.1E1,3E0,2.3E1,2.1E1,3.7E1,4E0,5E0,1.8E1,2E0,1.9E1],"tree_param":{"num_deleted":"0","num_feature":"11","num_nodes":"13","size_leaf_vector":"1"}},{"base_weights":[1.2735632E-2,-5.244569E-1,1.3489248E-1,-6.5386236E-1,1.3996135E-1,-3.7696056E-2,9.660744E-2],"categories":[],"categories_nodes":[],"categories_segments":[],"categories_sizes":[],"default_left":[0,0,0,0,0,0,0],"id":5,"left_children":[1,3,-1,5,-1,-1,-1],"loss_changes":[1.2979057E2,3.4088005E1,0E0,2.0345657E1,0E0,0E0,0E0],"parents":[2147483647,0,0,1,1,3,3],"right_children":[2,4,-1,6,-1,-1,-1],"split_conditions":[2E0,1E0,1.3489248E-1,4.8E1,1.3996135E-1,-3.7696056E-2,9.660744E-2],"split_indices":[1,3,0,0,0,0,0],"split_type":[0,0,0,0,0,0,0],"sum_hessian":[8.8E1,7.4E1,1.4E1,7.2E1,2E0,7E1,2E0],"tree_param":{"num_deleted":"0","num_feature":"11","num_nodes":"7","size_leaf_vector":"1"}},{"base_weights":[1.5848897E-2,1.229186E0,-1.1978405E0,4.8731315E-1,1.2716869E-1,-1.5494179E0,1.3965912E-1,-2.094847E-3,1.1160659E-1,-9.864714E-2,-5.37358E-2],"categories":[],"categories_nodes":[],"categories_segments":[],"categories_sizes":[],"default_left":[0,0,0,0,0,0,0,0,0,0,0],"id":6,"left_children":[1,3,5,7,-1,9,-1,-1,-1,-1,-1],"loss_changes":[1.3253505E2,4.2633774E1,6.74697E1,2.7794786E1,0E0,6.323662E0,0E0,0E0,0E0,0E0,0E0],"parents":[2147483647,0,0,1,1,2,2,3,3,5,5],"right_children":[2,4,6,8,-1,10,-1,-1,-1,-1,-1],"split_conditions":[1E0,1E0,2E0,2E0,1.2716869E-1,3.2E1,1.3965912E-1,-2.094847E-3,1.1160659E-1,-9.864714E-2,-5.37358E-2],"split_indices":[9,2,1,1,0,0,0,0,0,0,0],"split_type":[0,0,0,0,0,0,0,0,0,0,0],"sum_hessian":[8.8E1,4.4E1,4.4E1,2.9E1,1.5E1,4.1E1,3E0,2.3E1,6E0,2E1,2.1E1],"tree_param":{"num_deleted":"0","num_feature":"11","num_nodes":"11","size_leaf_vector":"1"}},{"base_weights":[1.7572781E-2,-5.0300634E-1,1.2120765E-1,-8.103179E-1,2.1336038E0,-4.6627823E-2,1.054145E-1,-7.082343E-3,1.23943746E-1],"categories":[],"categories_nodes":[],"categories_segments":[],"categories_sizes":[],"default_left":[0,0,0,0,0,0,0,0,0],"id":7,"left_children":[1,3,-1,5,7,-1,-1,-1,-1],"loss_changes":[1.1271993E2,6.1688194E1,0E0,2.5869453E1,6.63575E0,0E0,0E0,0E0,0E0],"parents":[2147483647,0,0,1,1,3,3,4,4],"right_children":[2,4,-1,6,8,-1,-1,-1,-1],"split_conditions":[1E0,1E0,1.2120765E-1,4.8E1,2.8E1,-4.6627823E-2,1.054145E-1,-7.082343E-3,1.23943746E-1],"split_indices":[2,4,0,0,0,0,0,0,0],"split_type":[0,0,0,0,0,0,0,0,0],"sum_hessian":[8.8E1,7.3E1,1.5E1,6.6E1,7E0,6.4E1,2E0,1E0,6E0],"tree_param":{"num_deleted":"0","num_feature":"11","num_nodes":"9","size_leaf_vector":"1"}},{"base_weights":[2.0029714E-2,-4.519918E-1,1.1894009E-1,-2.5293857E-2,8.838806E-2],"categories":[],"categories_nodes":[],"categories_segments":[],"categories_sizes":[],"default_left":[0,0,0,0,0],"id":8,"left_children":[1,3,-1,-1,-1],"loss_changes":[1.00167015E2,9.865179E0,0E0,0E0,0E0],"parents":[2147483647,0,0,1,1],"right_children":[2,4,-1,-1,-1],"split_conditions":[2E0,1E0,1.1894009E-1,-2.5293857E-2,8.838806E-2],"split_indices":[1,6,0,0,0],"split_type":[0,0,0,0,0],"sum_hessian":[8.8E1,7.4E1,1.4E1,7.3E1,1E0],"tree_param":{"num_deleted":"0","num_feature":"11","num_nodes":"5","size_leaf_vector":"1"}},{"base_weights":[2.1073569E-2,1.1305735E0,-1.0888946E0,4.7497457E-1,1.14458025E-1,-7.026829E-2,1.2531377E-1,1.3272657E-2,1.1360916E-1],"categories":[],"categories_nodes":[],"categories_segments":[],"categories_sizes":[],"default_left":[0,0,0,0,0,0,0,0,0],"id":9,"left_children":[1,3,5,7,-1,-1,-1,-1,-1],"loss_changes":[1.1083543E2,3.3093292E1,5.472176E1,1.0693455E1,0E0,0E0,0E0,0E0,0E0],"parents":[2147483647,0,0,1,1,2,2,3,3],"right_children":[2,4,6,8,-1,-1,-1,-1,-1],"split_conditions":[1E0,1E0,1E0,1E0,1.14458025E-1,-7.026829E-2,1.2531377E-1,1.3272657E-2,1.1360916E-1],"split_indices":[9,2,4,6,0,0,0,0,0],"split_type":[0,0,0,0,0,0,0,0,0],"sum_hessian":[8.8E1,4.4E1,4.4E1,2.9E1,1.5E1,4.1E1,3E0,2.7E1,2E0],"tree_param":{"num_deleted":"0","num_feature":"11","num_nodes":"9","size_leaf_vector":"1"}},{"base_weights":[2.3349958E-2,1.0794078E0,-1.0332268E0,8.919938E-1,1.3887015E-1,-1.3367707E0,1.2061451E-1,3.8593013E-2,1.0982219E-1,-8.71787E-2,-4.4384804E-2],"categories":[],"categories_nodes":[],"categories_segments":[],"categories_sizes":[],"default_left":[0,0,0,0,0,0,0,0,0,0,0],"id":10,"left_children":[1,3,5,7,-1,9,-1,-1,-1,-1,-1],"loss_changes":[1.0042203E2,1.1842842E1,5.028862E1,4.8863983E0,0E0,6.1250076E0,0E0,0E0,0E0,0E0,0E0],"parents":[2147483647,0,0,1,1,2,2,3,3,5,5],"right_children":[2,4,6,8,-1,10,-1,-1,-1,-1,-1],"split_conditions":[1E0,5.5E1,1E0,1E0,1.3887015E-1,3.2E1,1.2061451E-1,3.8593013E-2,1.0982219E-1,-8.71787E-2,-4.4384804E-2],"split_indices":[9,0,4,6,0,0,0,0,0,0,0],"split_type":[0,0,0,0,0,0,0,0,0,0,0],"sum_hessian":[8.8E1,4.4E1,4.4E1,4.1E1,3E0,4.1E1,3E0,3.9E1,2E0,2E1,2.1E1],"tree_param":{"num_deleted":"0","num_feature":"11","num_nodes":"11","size_leaf_vector":"1"}},{"base_weights":[2.5287481E-2,-4.321614E-1,1.0697041E-1,-6.995043E-1,1.8608559E0,-4.041457E-2,9.453588E-2,-7.569575E-3,1.0849736E-1],"categories":[],"categories_nodes":[],"categories_segments":[],"categories_sizes":[],"default_left":[0,0,0,0,0,0,0,0,0],"id":11,"left_children":[1,3,-1,5,7,-1,-1,-1,-1],"loss_changes":[8.699665E1,4.6665306E1,0E0,2.0407696E1,5.3042564E0,0E0,0E0,0E0,0E0],"parents":[2147483647,0,0,1,1,3,3,4,4],"right_children":[2,4,-1,6,8,-1,-1,-1,-1],"split_conditions":[1E0,1E0,1.0697041E-1,4.8E1,2.8E1,-4.041457E-2,9.453588E-2,-7.569575E-3,1.0849736E-1],"split_indices":[2,4,0,0,0,0,0,0,0],"split_type":[0,0,0,0,0,0,0,0,0],"sum_hessian":[8.8E1,7.3E1,1.5E1,6.6E1,7E0,6.4E1,2E0,1E0,6E0],"tree_param":{"num_deleted":"0","num_feature":"11","num_nodes":"9","size_leaf_vector":"1"}},{"base_weights":[2.6967209E-2,1.0055547E0,-9.5221955E-1,4.207996E-1,1.0195617E-1,-1.2336121E0,1.1202282E-1,-1.1731794E-3,9.419368E-2,-8.110283E-2,-4.033754E-2],"categories":[],"categories_nodes":[],"categories_segments":[],"categories_sizes":[],"default_left":[0,0,0,0,0,0,0,0,0,0,0],"id":12,"left_children":[1,3,5,7,-1,9,-1,-1,-1,-1,-1],"loss_changes":[8.623908E1,2.6339241E1,4.319163E1,1.9543898E1,0E0,5.6554985E0,0E0,0E0,0E0,0E0,0E0],"parents":[2147483647,0,0,1,1,2,2,3,3,5,5],"right_children":[2,4,6,8,-1,10,-1,-1,-1,-1,-1],"split_conditions":[1E0,1E0,2E0,2E0,1.0195617E-1,3.2E1,1.1202282E-1,-1.1731794E-3,9.419368E-2,-8.110283E-2,-4.033754E-2],"split_indices":[9,2,1,1,0,0,0,0,0,0,0],"split_type":[0,0,0,0,0,0,0,0,0,0,0],"sum_hessian":[8.8E1,4.4E1,4.4E1,2.9E1,1.5E1,4.1E1,3E0,2.3E1,6E0,2E1,2.1E1],"tree_param":{"num_deleted":"0","num_feature":"11","num_nodes":"11","size_leaf_vector":"1"}},{"base_weights":[2.770373E-2,9.596097E-1,-9.048179E-1,1.471039E0,1.53618E-3,-5.874114E-2,1.07821964E-1,9.2962064E-2,-7.3152955E-4],"categories":[],"categories_nodes":[],"categories_segments":[],"categories_sizes":[],"default_left":[0,0,0,0,0,0,0,0,0],"id":13,"left_children":[1,3,5,7,-1,-1,-1,-1,-1],"loss_changes":[7.8211266E1,2.1332489E1,3.9728397E1,1.6752659E1,0E0,0E0,0E0,0E0,0E0],"parents":[2147483647,0,0,1,1,2,2,3,3],"right_children":[2,4,6,8,-1,-1,-1,-1,-1],"split_conditions":[1E0,1E0,1E0,1E0,1.53618E-3,-5.874114E-2,1.07821964E-1,9.2962064E-2,-7.3152955E-4],"split_indices":[9,8,4,5,0,0,0,0,0],"split_type":[0,0,0,0,0,0,0,0,0],"sum_hessian":[8.8E1,4.4E1,4.4E1,2.8E1,1.6E1,4.1E1,3E0,2.2E1,6E0],"tree_param":{"num_deleted":"0","num_feature":"11","num_nodes":"9","size_leaf_vector":"1"}},{"base_weights":[2.7923461E-2,-9.618696E-2,1.066108E-1,-2.2359338E-1,6.777133E-2,-1.365337E-2,9.088446E-2],"categories":[],"categories_nodes":[],"categories_segments":[],"categories_sizes":[],"default_left":[0,0,0,0,0,0,0],"id":14,"left_children":[1,3,-1,5,-1,-1,-1],"loss_changes":[2.3448742E1,1.602338E1,0E0,8.474594E0,0E0,0E0,0E0],"parents":[2147483647,0,0,1,1,3,3],"right_children":[2,4,-1,6,-1,-1,-1],"split_conditions":[1E0,1E0,1.066108E-1,1E0,6.777133E-2,-1.365337E-2,9.088446E-2],"split_indices":[3,4,0,7,0,0,0],"split_type":[0,0,0,0,0,0,0],"sum_hessian":[8.8E1,8.4E1,4E0,7.8E1,6E0,7.7E1,1E0],"tree_param":{"num_deleted":"0","num_feature":"11","num_nodes":"7","size_leaf_vector":"1"}},{"base_weights":[2.9354315E-2,-3.3753166E-1,1.8618271E0,-4.409956E-1,1.1463012E-1,1.1961465E0,1.1473898E-1,-9.508442E-2,-1.6437855E-2,6.503553E-2,1.1604941E-2],"categories":[],"categories_nodes":[],"categories_segments":[],"categories_sizes":[],"default_left":[0,0,0,0,0,0,0,0,0,0,0],"id":15,"left_children":[1,3,5,7,-1,9,-1,-1,-1,-1,-1],"loss_changes":[6.0463886E1,2.1420334E1,1.5782242E0,1.1342869E1,0E0,5.045452E-1,0E0,0E0,0E0,0E0,0E0],"parents":[2147483647,0,0,1,1,2,2,3,3,5,5],"right_children":[2,4,6,8,-1,10,-1,-1,-1,-1,-1],"split_conditions":[2E0,1E0,3.3E1,2.6E1,1.1463012E-1,3E1,1.1473898E-1,-9.508442E-2,-1.6437855E-2,6.503553E-2,1.1604941E-2],"split_indices":[1,3,0,0,0,0,0,0,0,0,0],"split_type":[0,0,0,0,0,0,0,0,0,0,0],"sum_hessian":[8.8E1,7.4E1,1.4E1,7.2E1,2E0,7E0,7E0,4E0,6.8E1,6E0,1E0],"tree_param":{"num_deleted":"0","num_feature":"11","num_nodes":"11","size_leaf_vector":"1"}},{"base_weights":[3.0071937E-2,-3.2061353E-1,1.7814945E0,-9.128105E-2,-2.1011142E-1,1.1459193E0,1.0971915E-1,-1.3293589E-2,9.232785E-2,6.2248297E-2,1.1314821E-2],"categories":[],"categories_nodes":[],"categories_segments":[],"categories_sizes":[],"default_left":[0,0,0,0,0,0,0,0,0,0,0],"id":16,"left_children":[1,3,5,-1,7,9,-1,-1,-1,-1,-1],"loss_changes":[5.523483E1,1.2089405E1,1.4217415E0,0E0,8.633267E0,4.4695282E-1,0E0,0E0,0E0,0E0,0E0],"parents":[2147483647,0,0,1,1,2,2,4,4,5,5],"right_children":[2,4,6,-1,8,10,-1,-1,-1,-1,-1],"split_conditions":[2E0,2.6E1,3.3E1,-9.128105E-2,5.5E1,3E1,1.0971915E-1,-1.3293589E-2,9.232785E-2,6.2248297E-2,1.1314821E-2],"split_indices":[1,0,0,0,0,0,0,0,0,0,0],"split_type":[0,0,0,0,0,0,0,0,0,0,0],"sum_hessian":[8.8E1,7.4E1,1.4E1,4E0,7E1,7E0,7E0,6.9E1,1E0,6E0,1E0],"tree_param":{"num_deleted":"0","num_feature":"11","num_nodes":"11","size_leaf_vector":"1"}},{"base_weights":[3.0490093E-2,-3.0474615E-1,1.7046386E0,-8.762981E-2,-1.9849266E-1,1.0978189E0,1.04918934E-1,-1.2638404E-2,9.001964E-2,5.9580516E-2,1.103195E-2],"categories":[],"categories_nodes":[],"categories_segments":[],"categories_sizes":[],"default_left":[0,0,0,0,0,0,0,0,0,0,0],"id":17,"left_children":[1,3,5,-1,7,9,-1,-1,-1,-1,-1],"loss_changes":[5.0469418E1,1.1190054E1,1.2802963E0,0E0,8.157894E0,3.952608E-1,0E0,0E0,0E0,0E0,0E0],"parents":[2147483647,0,0,1,1,2,2,4,4,5,5],"right_children":[2,4,6,-1,8,10,-1,-1,-1,-1,-1],"split_conditions":[2E0,2.6E1,3.3E1,-8.762981E-2,5.5E1,3E1,1.04918934E-1,-1.2638404E-2,9.001964E-2,5.9580516E-2,1.103195E-2],"split_indices":[1,0,0,0,0,0,0,0,0,0,0],"split_type":[0,0,0,0,0,0,0,0,0,0,0],"sum_hessian":[8.8E1,7.4E1,1.4E1,4E0,7E1,7E0,7E0,6.9E1,1E0,6E0,1E0],"tree_param":{"num_deleted":"0","num_feature":"11","num_nodes":"11","size_leaf_vector":"1"}},{"base_weights":[3.082274E-2,-3.5138118E-1,8.9829475E-2,-5.586775E-1,7.1432404E-2,-3.1205697E-2,5.2266903E-2],"categories":[],"categories_nodes":[],"categories_segments":[],"categories_sizes":[],"default_left":[0,0,0,0,0,0,0],"id":18,"left_children":[1,3,-1,5,-1,-1,-1],"loss_changes":[6.0695873E1,2.810367E1,0E0,7.684801E0,0E0,0E0,0E0],"parents":[2147483647,0,0,1,1,3,3],"right_children":[2,4,-1,6,-1,-1,-1],"split_conditions":[1E0,1E0,8.9829475E-2,1E0,7.1432404E-2,-3.1205697E-2,5.2266903E-2],"split_indices":[2,4,0,3,0,0,0],"split_type":[0,0,0,0,0,0,0],"sum_hessian":[8.8E1,7.3E1,1.5E1,6.6E1,7E0,6.4E1,2E0],"tree_param":{"num_deleted":"0","num_feature":"11","num_nodes":"7","size_leaf_vector":"1"}},{"base_weights":[3.133013E-2,8.4845823E-1,-7.8649414E-1,6.402632E-2,6.1491434E-2,-5.0513454E-2,8.798826E-2,-1.1908976E-2,7.6967455E-2],"categories":[],"categories_nodes":[],"categories_segments":[],"categories_sizes":[],"default_left":[0,0,0,0,0,0,0,0,0],"id":19,"left_children":[1,3,5,-1,7,-1,-1,-1,-1],"loss_changes":[6.0143085E1,1.5222313E1,2.7418327E1,0E0,7.8954487E0,0E0,0E0,0E0,0E0],"parents":[2147483647,0,0,1,1,2,2,4,4],"right_children":[2,4,6,-1,8,-1,-1,-1,-1],"split_conditions":[1E0,1E0,2E0,6.402632E-2,2E0,-5.0513454E-2,8.798826E-2,-1.1908976E-2,7.6967455E-2],"split_indices":[9,8,1,0,1,0,0,0,0],"split_type":[0,0,0,0,0,0,0,0,0],"sum_hessian":[8.8E1,4.4E1,4.4E1,2.8E1,1.6E1,4.1E1,3E0,1.4E1,2E0],"tree_param":{"num_deleted":"0","num_feature":"11","num_nodes":"9","size_leaf_vector":"1"}},{"base_weights":[3.16351E-2,-2.6548237E-1,1.5151134E0,-3.6057907E-1,1.068516E-1,5.3540327E-2,1.00155294E-1,-2.0498475E-2,7.988828E-2],"categories":[],"categories_nodes":[],"categories_segments":[],"categories_sizes":[],"default_left":[0,0,0,0,0,0,0,0,0],"id":20,"left_children":[1,3,5,7,-1,-1,-1,-1,-1],"loss_changes":[3.9630527E1,1.7905912E1,1.1073341E0,7.715846E0,0E0,0E0,0E0,0E0,0E0],"parents":[2147483647,0,0,1,1,2,2,3,3],"right_children":[2,4,6,8,-1,-1,-1,-1,-1],"split_conditions":[2E0,1E0,4E0,1E0,1.068516E-1,5.3540327E-2,1.00155294E-1,-2.0498475E-2,7.988828E-2],"split_indices":[1,3,1,6,0,0,0,0,0],"split_type":[0,0,0,0,0,0,0,0,0],"sum_hessian":[8.8E1,7.4E1,1.4E1,7.2E1,2E0,9E0,5E0,7.1E1,1E0],"tree_param":{"num_deleted":"0","num_feature":"11","num_nodes":"9","size_leaf_vector":"1"}},{"base_weights":[3.3648096E-2,-3.1422764E-1,1.6404704E0,-6.0647625E-1,1.6168112E0,9.3961716E-2,4.6466246E-2,-3.2995895E-2,1.8674374E-2,4.6502527E-2,9.598216E-2],"categories":[],"categories_nodes":[],"categories_segments":[],"categories_sizes":[],"default_left":[0,0,0,0,0,0,0,0,0,0,0],"id":21,"left_children":[1,3,5,7,9,-1,-1,-1,-1,-1,-1],"loss_changes":[5.0264214E1,4.2741974E1,9.70314E-1,3.6505737E0,2.9436493E-1,0E0,0E0,0E0,0E0,0E0,0E0],"parents":[2147483647,0,0,1,1,2,2,3,3,4,4],"right_children":[2,4,6,8,10,-1,-1,-1,-1,-1,-1],"split_conditions":[1E0,2E0,2E0,1E0,4E0,9.3961716E-2,4.6466246E-2,-3.2995895E-2,1.8674374E-2,4.6502527E-2,9.598216E-2],"split_indices":[2,1,1,4,1,0,0,0,0,0,0],"split_type":[0,0,0,0,0,0,0,0,0,0,0],"sum_hessian":[8.8E1,7.3E1,1.5E1,6.4E1,9E0,1E1,5E0,6.1E1,3E0,4E0,5E0],"tree_param":{"num_deleted":"0","num_feature":"11","num_nodes":"11","size_leaf_vector":"1"}},{"base_weights":[3.4983538E-2,-6.675957E-2,8.7880984E-2,-1.519003E-1,4.518258E-2,-9.710745E-3,7.871596E-2],"categories":[],"categories_nodes":[],"categories_segments":[],"categories_sizes":[],"default_left":[0,0,0,0,0,0,0],"id":22,"left_children":[1,3,-1,5,-1,-1,-1],"loss_changes":[1.5716044E1,7.160094E0,0E0,6.0762544E0,0E0,0E0,0E0],"parents":[2147483647,0,0,1,1,3,3],"right_children":[2,4,-1,6,-1,-1,-1],"split_conditions":[1E0,1E0,8.7880984E-2,1E0,4.518258E-2,-9.710745E-3,7.871596E-2],"split_indices":[3,4,0,6,0,0,0],"split_type":[0,0,0,0,0,0,0],"sum_hessian":[8.8E1,8.4E1,4E0,7.8E1,6E0,7.7E1,1E0],"tree_param":{"num_deleted":"0","num_feature":"11","num_nodes":"7","size_leaf_vector":"1"}},{"base_weights":[3.550482E-2,-6.2078174E-2,8.436574E-2,-9.936389E-2,7.6748066E-2,-7.362369E-3,4.9007474E-3],"categories":[],"categories_nodes":[],"categories_segments":[],"categories_sizes":[],"default_left":[0,0,0,0,0,0,0],"id":23,"left_children":[1,3,-1,5,-1,-1,-1],"loss_changes":[1.4450527E1,5.213995E0,0E0,8.08332E-1,0E0,0E0,0E0],"parents":[2147483647,0,0,1,1,3,3],"right_children":[2,4,-1,6,-1,-1,-1],"split_conditions":[1E0,1E0,8.436574E-2,1E0,7.6748066E-2,-7.362369E-3,4.9007474E-3],"split_indices":[3,6,0,8,0,0,0],"split_type":[0,0,0,0,0,0,0],"sum_hessian":[8.8E1,8.4E1,4E0,8.3E1,1E0,6.7E1,1.6E1],"tree_param":{"num_deleted":"0","num_feature":"11","num_nodes":"7","size_leaf_vector":"1"}},{"base_weights":[3.5512153E-2,7.6787406E-1,-6.976389E-1,6.452493E-1,8.099111E-2,-4.4603538E-2,7.591528E-2,3.4776058E-2,3.177047E-4],"categories":[],"categories_nodes":[],"categories_segments":[],"categories_sizes":[],"default_left":[0,0,0,0,0,0,0,0,0],"id":24,"left_children":[1,3,5,7,-1,-1,-1,-1,-1],"loss_changes":[4.832264E1,3.6559563E0,2.0742693E1,1.312439E0,0E0,0E0,0E0,0E0,0E0],"parents":[2147483647,0,0,1,1,2,2,3,3],"right_children":[2,4,6,8,-1,-1,-1,-1,-1],"split_conditions":[1E0,1E0,1E0,1E0,8.099111E-2,-4.4603538E-2,7.591528E-2,3.4776058E-2,3.177047E-4],"split_indices":[9,3,4,4,0,0,0,0,0],"split_type":[0,0,0,0,0,0,0,0,0],"sum_hessian":[8.8E1,4.4E1,4.4E1,4E1,4E0,4.1E1,3E0,3.7E1,3E0],"tree_param":{"num_deleted":"0","num_feature":"11","num_nodes":"9","size_leaf_vector":"1"}},{"base_weights":[3.5392646E-2,7.320599E-1,-6.620611E-1,1.1003888E0,3.0335875E-3,-4.242646E-2,7.3068455E-2,7.074322E-2,-4.5043095E-3],"categories":[],"categories_nodes":[],"categories_segments":[],"categories_sizes":[],"default_left":[0,0,0,0,0,0,0,0,0],"id":25,"left_children":[1,3,5,7,-1,-1,-1,-1,-1],"loss_changes":[4.372916E1,1.1061361E1,1.905785E1,1.0984341E1,0E0,0E0,0E0,0E0,0E0],"parents":[2147483647,0,0,1,1,2,2,3,3],"right_children":[2,4,6,8,-1,-1,-1,-1,-1],"split_conditions":[1E0,1E0,1E0,1E0,3.0335875E-3,-4.242646E-2,7.3068455E-2,7.074322E-2,-4.5043095E-3],"split_indices":[9,8,4,5,0,0,0,0,0],"split_type":[0,0,0,0,0,0,0,0,0],"sum_hessian":[8.8E1,4.4E1,4.4E1,2.8E1,1.6E1,4.1E1,3E0,2.2E1,6E0],"tree_param":{"num_deleted":"0","num_feature":"11","num_nodes":"9","size_leaf_vector":"1"}},{"base_weights":[3.47456E-2,6.9699633E-1,-6.2827724E-1,1.0476536E0,5.781656E-2,-8.07113E-1,7.032838E-2,6.07205E-2,3.911212E-2,-1.0396837E-2,6.8365544E-2,-5.8173846E-2,-2.1513022E-2],"categories":[],"categories_nodes":[],"categories_segments":[],"categories_sizes":[],"default_left":[0,0,0,0,0,0,0,0,0,0,0,0,0],"id":26,"left_children":[1,3,5,7,9,11,-1,-1,-1,-1,-1,-1,-1],"loss_changes":[3.951668E1,1.00254135E1,1.7510897E1,3.335476E-1,6.2003546E0,5.139862E0,0E0,0E0,0E0,0E0,0E0,0E0,0E0],"parents":[2147483647,0,0,1,1,2,2,3,3,4,4,5,5],"right_children":[2,4,6,8,10,12,-1,-1,-1,-1,-1,-1,-1],"split_conditions":[1E0,1E0,1E0,3.5E1,4.2E1,3.2E1,7.032838E-2,6.07205E-2,3.911212E-2,-1.0396837E-2,6.8365544E-2,-5.8173846E-2,-2.1513022E-2],"split_indices":[9,8,4,0,0,0,0,0,0,0,0,0,0],"split_type":[0,0,0,0,0,0,0,0,0,0,0,0,0],"sum_hessian":[8.8E1,4.4E1,4.4E1,2.8E1,1.6E1,4.1E1,3E0,1.5E1,1.3E1,1.4E1,2E0,2E1,2.1E1],"tree_param":{"num_deleted":"0","num_feature":"11","num_nodes":"13","size_leaf_vector":"1"}},{"base_weights":[3.467626E-2,-2.6708743E-1,7.140831E-2,2.367913E-1,-2.9853567E-2,7.296357E-3,7.17963E-2],"categories":[],"categories_nodes":[],"categories_segments":[],"categories_sizes":[],"default_left":[0,0,0,0,0,0,0],"id":27,"left_children":[1,3,-1,5,-1,-1,-1],"loss_changes":[3.7806362E1,1.24455E1,0E0,3.0592103E0,0E0,0E0,0E0],"parents":[2147483647,0,0,1,1,3,3],"right_children":[2,4,-1,6,-1,-1,-1],"split_conditions":[1E0,1E0,7.140831E-2,1E0,-2.9853567E-2,7.296357E-3,7.17963E-2],"split_indices":[2,9,0,7,0,0,0],"split_type":[0,0,0,0,0,0,0],"sum_hessian":[8.8E1,7.3E1,1.5E1,2.9E1,4.4E1,2.8E1,1E0],"tree_param":{"num_deleted":"0","num_feature":"11","num_nodes":"7","size_leaf_vector":"1"}},{"base_weights":[3.4297973E-2,6.3571495E-1,-5.6788117E-1,4.999971E-1,9.509118E-2,-7.3951185E-1,6.8810575E-2,3.97405E-2,5.064314E-3,-5.398206E-2,-1.9061437E-2],"categories":[],"categories_nodes":[],"categories_segments":[],"categories_sizes":[],"default_left":[0,0,0,0,0,0,0,0,0,0,0],"id":28,"left_children":[1,3,5,7,-1,9,-1,-1,-1,-1,-1],"loss_changes":[3.259332E1,6.781603E0,1.6032694E1,4.85639E0,0E0,4.706642E0,0E0,0E0,0E0,0E0,0E0],"parents":[2147483647,0,0,1,1,2,2,3,3,5,5],"right_children":[2,4,6,8,-1,10,-1,-1,-1,-1,-1],"split_conditions":[1E0,5.5E1,2E0,3.5E1,9.509118E-2,3.2E1,6.8810575E-2,3.97405E-2,5.064314E-3,-5.398206E-2,-1.9061437E-2],"split_indices":[9,0,1,0,0,0,0,0,0,0,0],"split_type":[0,0,0,0,0,0,0,0,0,0,0],"sum_hessian":[8.8E1,4.4E1,4.4E1,4.1E1,3E0,4.1E1,3E0,2.3E1,1.8E1,2E1,2.1E1],"tree_param":{"num_deleted":"0","num_feature":"11","num_nodes":"11","size_leaf_vector":"1"}},{"base_weights":[3.4107294E-2,6.070379E-1,-5.3958124E-1,9.2947274E-1,2.1293864E-2,-3.5213776E-2,6.623018E-2,4.0957626E-2,8.062651E-2,-1.141319E-2,6.309921E-2],"categories":[],"categories_nodes":[],"categories_segments":[],"categories_sizes":[],"default_left":[0,0,0,0,0,0,0,0,0,0,0],"id":29,"left_children":[1,3,5,7,9,-1,-1,-1,-1,-1,-1],"loss_changes":[2.9580395E1,8.479101E0,1.4748808E1,8.643894E-1,5.5516696E0,0E0,0E0,0E0,0E0,0E0,0E0],"parents":[2147483647,0,0,1,1,2,2,3,3,4,4],"right_children":[2,4,6,8,10,-1,-1,-1,-1,-1,-1],"split_conditions":[1E0,1E0,2E0,1E0,2E0,-3.5213776E-2,6.623018E-2,4.0957626E-2,8.062651E-2,-1.141319E-2,6.309921E-2],"split_indices":[9,8,1,6,1,0,0,0,0,0,0],"split_type":[0,0,0,0,0,0,0,0,0,0,0],"sum_hessian":[8.8E1,4.4E1,4.4E1,2.8E1,1.6E1,4.1E1,3E0,2.6E1,2E0,1.4E1,2E0],"tree_param":{"num_deleted":"0","num_feature":"11","num_nodes":"11","size_leaf_vector":"1"}},{"base_weights":[3.469728E-2,-2.3876199E-1,1.2972778E0,-4.6364808E-1,1.2468739E0,7.6051705E-2,3.354225E-2,-4.1694124E-3,-3.349501E-2,3.140441E-2,7.773581E-2],"categories":[],"categories_nodes":[],"categories_segments":[],"categories_sizes":[],"default_left":[0,0,0,0,0,0,0,0,0,0,0],"id":30,"left_children":[1,3,5,7,9,-1,-1,-1,-1,-1,-1],"loss_changes":[3.1038269E1,2.5301426E1,1.2223148E0,5.0420504E0,9.283867E-1,0E0,0E0,0E0,0E0,0E0,0E0],"parents":[2147483647,0,0,1,1,2,2,3,3,4,4],"right_children":[2,4,6,8,10,-1,-1,-1,-1,-1,-1],"split_conditions":[1E0,2E0,2E0,1E0,4E0,7.6051705E-2,3.354225E-2,-4.1694124E-3,-3.349501E-2,3.140441E-2,7.773581E-2],"split_indices":[2,1,1,9,1,0,0,0,0,0,0],"split_type":[0,0,0,0,0,0,0,0,0,0,0],"sum_hessian":[8.8E1,7.3E1,1.5E1,6.4E1,9E0,1E1,5E0,2.3E1,4.1E1,4E0,5E0],"tree_param":{"num_deleted":"0","num_feature":"11","num_nodes":"11","size_leaf_vector":"1"}},{"base_weights":[3.499689E-2,-2.2585803E-1,1.2392635E0,-4.4104517E-1,1.1954441E0,7.2594814E-2,3.214466E-2,-2.4508888E-2,6.758602E-2,3.0148229E-2,7.449682E-2],"categories":[],"categories_nodes":[],"categories_segments":[],"categories_sizes":[],"default_left":[0,0,0,0,0,0,0,0,0,0,0],"id":31,"left_children":[1,3,5,7,9,-1,-1,-1,-1,-1,-1],"loss_changes":[2.823826E1,2.3159842E1,1.0955124E0,6.387993E0,8.4642696E-1,0E0,0E0,0E0,0E0,0E0,0E0],"parents":[2147483647,0,0,1,1,2,2,3,3,4,4],"right_children":[2,4,6,8,10,-1,-1,-1,-1,-1,-1],"split_conditions":[1E0,2E0,2E0,1E0,4E0,7.2594814E-2,3.214466E-2,-2.4508888E-2,6.758602E-2,3.0148229E-2,7.449682E-2],"split_indices":[2,1,1,6,1,0,0,0,0,0,0],"split_type":[0,0,0,0,0,0,0,0,0,0,0],"sum_hessian":[8.8E1,7.3E1,1.5E1,6.4E1,9E0,1E1,5E0,6.3E1,1E0,4E0,5E0],"tree_param":{"num_deleted":"0","num_feature":"11","num_nodes":"11","size_leaf_vector":"1"}},{"base_weights":[3.6083777E-2,5.4057956E-1,-4.6921384E-1,8.1871676E-1,3.431135E-2,-3.0663867E-2,5.8037817E-2,4.3431904E-2,2.0268349E-2,-5.95731E-3,6.2240805E-2],"categories":[],"categories_nodes":[],"categories_segments":[],"categories_sizes":[],"default_left":[0,0,0,0,0,0,0,0,0,0,0],"id":32,"left_children":[1,3,5,7,9,-1,-1,-1,-1,-1,-1],"loss_changes":[2.2941572E1,6.3084507E0,1.1278729E1,2.4629402E-1,3.3062534E0,0E0,0E0,0E0,0E0,0E0,0E0],"parents":[2147483647,0,0,1,1,2,2,3,3,4,4],"right_children":[2,4,6,8,10,-1,-1,-1,-1,-1,-1],"split_conditions":[1E0,1E0,1E0,1E0,1E0,-3.0663867E-2,5.8037817E-2,4.3431904E-2,2.0268349E-2,-5.95731E-3,6.2240805E-2],"split_indices":[9,8,4,4,7,0,0,0,0,0,0],"split_type":[0,0,0,0,0,0,0,0,0,0,0],"sum_hessian":[8.8E1,4.4E1,4.4E1,2.8E1,1.6E1,4.1E1,3E0,2.4E1,4E0,1.5E1,1E0],"tree_param":{"num_deleted":"0","num_feature":"11","num_nodes":"11","size_leaf_vector":"1"}},{"base_weights":[3.5935346E-2,-2.039436E-1,5.7156473E-2,-2.716157E-1,7.440842E-2,-1.5646694E-2,3.9150666E-2],"categories":[],"categories_nodes":[],"categories_segments":[],"categories_sizes":[],"default_left":[0,0,0,0,0,0,0],"id":33,"left_children":[1,3,-1,5,-1,-1,-1],"loss_changes":[2.3870872E1,8.877861E0,0E0,3.3824553E0,0E0,0E0,0E0],"parents":[2147483647,0,0,1,1,3,3],"right_children":[2,4,-1,6,-1,-1,-1],"split_conditions":[1E0,1E0,5.7156473E-2,1E0,7.440842E-2,-1.5646694E-2,3.9150666E-2],"split_indices":[2,6,0,3,0,0,0],"split_type":[0,0,0,0,0,0,0],"sum_hessian":[8.8E1,7.3E1,1.5E1,7.1E1,2E0,6.9E1,2E0],"tree_param":{"num_deleted":"0","num_feature":"11","num_nodes":"7","size_leaf_vector":"1"}},{"base_weights":[3.5880834E-2,-1.4768894E-1,9.513377E-1,-6.329044E-2,-6.6867985E-2,4.1089666E-1,6.864308E-2,-5.31916E-3,6.747992E-2,2.635782E-2,-1.00730425E-2],"categories":[],"categories_nodes":[],"categories_segments":[],"categories_sizes":[],"default_left":[0,0,0,0,0,0,0,0,0,0,0],"id":34,"left_children":[1,3,5,-1,7,9,-1,-1,-1,-1,-1],"loss_changes":[1.50969715E1,6.692921E0,2.8530273E0,0E0,4.117584E0,6.757417E-1,0E0,0E0,0E0,0E0,0E0],"parents":[2147483647,0,0,1,1,2,2,4,4,5,5],"right_children":[2,4,6,-1,8,10,-1,-1,-1,-1,-1],"split_conditions":[2E0,2.6E1,3.3E1,-6.329044E-2,5.5E1,3E1,6.864308E-2,-5.31916E-3,6.747992E-2,2.635782E-2,-1.00730425E-2],"split_indices":[1,0,0,0,0,0,0,0,0,0,0],"split_type":[0,0,0,0,0,0,0,0,0,0,0],"sum_hessian":[8.8E1,7.4E1,1.4E1,4E0,7E1,7E0,7E0,6.9E1,1E0,6E0,1E0],"tree_param":{"num_deleted":"0","num_feature":"11","num_nodes":"11","size_leaf_vector":"1"}},{"base_weights":[3.502832E-2,-3.7788406E-2,7.959154E-2,-8.981491E-2,7.15775E-2,-6.0758825E-2,-9.178563E-4],"categories":[],"categories_nodes":[],"categories_segments":[],"categories_sizes":[],"default_left":[0,0,0,0,0,0,0],"id":35,"left_children":[1,3,-1,5,-1,-1,-1],"loss_changes":[1.0149305E1,6.7028046E0,0E0,6.732624E0,0E0,0E0,0E0],"parents":[2147483647,0,0,1,1,3,3],"right_children":[2,4,-1,6,-1,-1,-1],"split_conditions":[5.5E1,1E0,7.959154E-2,2.6E1,7.15775E-2,-6.0758825E-2,-9.178563E-4],"split_indices":[0,6,0,0,0,0,0],"split_type":[0,0,0,0,0,0,0],"sum_hessian":[8.8E1,8.5E1,3E0,8.3E1,2E0,4E0,7.9E1],"tree_param":{"num_deleted":"0","num_feature":"11","num_nodes":"7","size_leaf_vector":"1"}},{"base_weights":[3.4282476E-2,-1.9025506E-1,1.070626E0,-3.509549E-1,5.9079444E-1,4.124751E-1,1.2556367E0,-2.1832343E-2,2.6080564E-2,1.596845E-2,5.6082975E-2,2.820376E-2,6.1691683E-3,9.63484E-2,4.08876E-2],"categories":[],"categories_nodes":[],"categories_segments":[],"categories_sizes":[],"default_left":[0,0,0,0,0,0,0,0,0,0,0,0,0,0,0],"id":36,"left_children":[1,3,5,7,9,11,13,-1,-1,-1,-1,-1,-1,-1,-1],"loss_changes":[2.0913816E1,9.495417E0,1.4303207E0,4.8636184E0,1.5149503E0,1.495341E-1,1.951807E0,0E0,0E0,0E0,0E0,0E0,0E0,0E0,0E0],"parents":[2147483647,0,0,1,1,2,2,3,3,4,4,5,5,6,6],"right_children":[2,4,6,8,10,12,14,-1,-1,-1,-1,-1,-1,-1,-1],"split_conditions":[1E0,4.1E1,2.9E1,1E0,4.8E1,2.7E1,3.5E1,-2.1832343E-2,2.6080564E-2,1.596845E-2,5.6082975E-2,2.820376E-2,6.1691683E-3,9.63484E-2,4.08876E-2],"split_indices":[2,0,0,4,0,0,0,0,0,0,0,0,0,0,0],"split_type":[0,0,0,0,0,0,0,0,0,0,0,0,0,0,0],"sum_hessian":[8.8E1,7.3E1,1.5E1,6.1E1,1.2E1,4E0,1.1E1,5.6E1,5E0,9E0,3E0,2E0,2E0,3E0,8E0],"tree_param":{"num_deleted":"0","num_feature":"11","num_nodes":"15","size_leaf_vector":"1"}},{"base_weights":[3.5353787E-2,-1.7971127E-1,1.0278201E0,-3.625639E-1,1.0268021E0,6.1752338E-2,2.3830056E-2,-2.034394E-2,6.183971E-2,2.5169317E-2,6.4592406E-2],"categories":[],"categories_nodes":[],"categories_segments":[],"categories_sizes":[],"default_left":[0,0,0,0,0,0,0,0,0,0,0],"id":37,"left_children":[1,3,5,7,9,-1,-1,-1,-1,-1,-1],"loss_changes":[1.9181301E1,1.6697727E1,1.2390118E0,5.1101246E0,7.3699474E-1,0E0,0E0,0E0,0E0,0E0,0E0],"parents":[2147483647,0,0,1,1,2,2,3,3,4,4],"right_children":[2,4,6,8,10,-1,-1,-1,-1,-1,-1],"split_conditions":[1E0,2E0,2E0,1E0,4E0,6.1752338E-2,2.3830056E-2,-2.034394E-2,6.183971E-2,2.5169317E-2,6.4592406E-2],"split_indices":[2,1,1,6,1,0,0,0,0,0,0],"split_type":[0,0,0,0,0,0,0,0,0,0,0],"sum_hessian":[8.8E1,7.3E1,1.5E1,6.4E1,9E0,1E1,5E0,6.3E1,1E0,4E0,5E0],"tree_param":{"num_deleted":"0","num_feature":"11","num_nodes":"11","size_leaf_vector":"1"}},{"base_weights":[3.602251E-2,-1.6895196E-1,4.9088903E-2,-2.728603E-1,3.6119968E-2,-1.8984793E-2,3.1848517E-3],"categories":[],"categories_nodes":[],"categories_segments":[],"categories_sizes":[],"default_left":[0,0,0,0,0,0,0],"id":38,"left_children":[1,3,-1,5,-1,-1,-1],"loss_changes":[1.7419035E1,7.050908E0,0E0,2.4332576E0,0E0,0E0,0E0],"parents":[2147483647,0,0,1,1,3,3],"right_children":[2,4,-1,6,-1,-1,-1],"split_conditions":[1E0,1E0,4.9088903E-2,1E0,3.6119968E-2,-1.8984793E-2,3.1848517E-3],"split_indices":[2,4,0,8,0,0,0],"split_type":[0,0,0,0,0,0,0],"sum_hessian":[8.8E1,7.3E1,1.5E1,6.6E1,7E0,5E1,1.6E1],"tree_param":{"num_deleted":"0","num_feature":"11","num_nodes":"7","size_leaf_vector":"1"}},{"base_weights":[3.5001263E-2,-1.2173848E-1,8.1636655E-1,-1.8905254E-1,7.784083E-2,4.965036E-1,6.067052E-2,-1.1271923E-2,6.0768344E-2,1.805361E-2,4.288466E-2],"categories":[],"categories_nodes":[],"categories_segments":[],"categories_sizes":[],"default_left":[0,0,0,0,0,0,0,0,0,0,0],"id":39,"left_children":[1,3,5,7,-1,9,-1,-1,-1,-1,-1],"loss_changes":[1.0999301E1,8.768598E0,1.3025322E0,4.0043697E0,0E0,1.7947531E-1,0E0,0E0,0E0,0E0,0E0],"parents":[2147483647,0,0,1,1,2,2,3,3,5,5],"right_children":[2,4,6,8,-1,10,-1,-1,-1,-1,-1],"split_conditions":[2E0,1E0,4E0,1E0,7.784083E-2,1E0,6.067052E-2,-1.1271923E-2,6.0768344E-2,1.805361E-2,4.288466E-2],"split_indices":[1,3,1,6,0,6,0,0,0,0,0],"split_type":[0,0,0,0,0,0,0,0,0,0,0],"sum_hessian":[8.8E1,7.4E1,1.4E1,7.2E1,2E0,9E0,5E0,7.1E1,1E0,8E0,1E0],"tree_param":{"num_deleted":"0","num_feature":"11","num_nodes":"11","size_leaf_vector":"1"}},{"base_weights":[3.6048386E-2,4.390404E-1,-3.6774468E-1,3.3739817E-1,6.982618E-2,-7.376863E-1,-1.3308893E-2,3.117746E-2,-2.090675E-3,-6.106943E-2,-2.6178723E-2,-9.518561E-3,2.2194775E-2],"categories":[],"categories_nodes":[],"categories_segments":[],"categories_sizes":[],"default_left":[0,0,0,0,0,0,0,0,0,0,0,0,0],"id":40,"left_children":[1,3,5,7,-1,9,11,-1,-1,-1,-1,-1,-1],"loss_changes":[1.4644014E1,3.908248E0,5.890606E0,4.583568E0,0E0,1.6389723E0,2.0273929E0,0E0,0E0,0E0,0E0,0E0,0E0],"parents":[2147483647,0,0,1,1,2,2,3,3,5,5,6,6],"right_children":[2,4,6,8,-1,10,12,-1,-1,-1,-1,-1,-1],"split_conditions":[1E0,5.5E1,3.2E1,3.5E1,6.982618E-2,2.8E1,4.1E1,3.117746E-2,-2.090675E-3,-6.106943E-2,-2.6178723E-2,-9.518561E-3,2.2194775E-2],"split_indices":[9,0,0,0,0,0,0,0,0,0,0,0,0],"split_type":[0,0,0,0,0,0,0,0,0,0,0,0,0],"sum_hessian":[8.8E1,4.4E1,4.4E1,4.1E1,3E0,2.1E1,2.3E1,2.3E1,1.8E1,5E0,1.6E1,1.7E1,6E0],"tree_param":{"num_deleted":"0","num_feature":"11","num_nodes":"13","size_leaf_vector":"1"}},{"base_weights":[3.4519427E-2,-1.1167547E-1,7.631926E-1,-1.7618276E-1,7.476135E-2,4.596929E-1,5.7091337E-2,-1.0555645E-2,5.84697E-2,1.6420027E-2,4.10331E-2],"categories":[],"categories_nodes":[],"categories_segments":[],"categories_sizes":[],"default_left":[0,0,0,0,0,0,0,0,0,0,0],"id":41,"left_children":[1,3,5,7,-1,9,-1,-1,-1,-1,-1],"loss_changes":[9.566249E0,8.037702E0,1.1988411E0,3.6779616E0,0E0,2.044189E-1,0E0,0E0,0E0,0E0,0E0],"parents":[2147483647,0,0,1,1,2,2,3,3,5,5],"right_children":[2,4,6,8,-1,10,-1,-1,-1,-1,-1],"split_conditions":[2E0,1E0,4E0,1E0,7.476135E-2,1E0,5.7091337E-2,-1.0555645E-2,5.84697E-2,1.6420027E-2,4.10331E-2],"split_indices":[1,3,1,6,0,6,0,0,0,0,0],"split_type":[0,0,0,0,0,0,0,0,0,0,0],"sum_hessian":[8.8E1,7.4E1,1.4E1,7.2E1,2E0,9E0,5E0,7.1E1,1E0,8E0,1E0],"tree_param":{"num_deleted":"0","num_feature":"11","num_nodes":"11","size_leaf_vector":"1"}},{"base_weights":[3.5458937E-2,4.153331E-1,-3.452032E-1,3.6673018E-1,4.8676517E-2,-2.283221E-2,4.556141E-2,1.9402217E-2,3.095305E-3],"categories":[],"categories_nodes":[],"categories_segments":[],"categories_sizes":[],"default_left":[0,0,0,0,0,0,0,0,0],"id":42,"left_children":[1,3,5,7,-1,-1,-1,-1,-1],"loss_changes":[1.3013103E1,8.638277E-1,6.7169156E0,2.5535154E-1,0E0,0E0,0E0,0E0,0E0],"parents":[2147483647,0,0,1,1,2,2,3,3],"right_children":[2,4,6,8,-1,-1,-1,-1,-1],"split_conditions":[1E0,4E0,2E0,1E0,4.8676517E-2,-2.283221E-2,4.556141E-2,1.9402217E-2,3.095305E-3],"split_indices":[9,1,1,4,0,0,0,0,0],"split_type":[0,0,0,0,0,0,0,0,0],"sum_hessian":[8.8E1,4.4E1,4.4E1,4.2E1,2E0,4.1E1,3E0,3.9E1,3E0],"tree_param":{"num_deleted":"0","num_feature":"11","num_nodes":"9","size_leaf_vector":"1"}},{"base_weights":[3.474115E-2,3.9614823E-1,-3.2743797E-1,5.032623E-1,-2.5722244E-1,-2.1717783E-2,4.3852862E-2,2.1331653E-2,6.403008E-2,-2.8370542E-2,1.7274952E-2],"categories":[],"categories_nodes":[],"categories_segments":[],"categories_sizes":[],"default_left":[0,0,0,0,0,0,0,0,0,0,0],"id":43,"left_children":[1,3,5,7,9,-1,-1,-1,-1,-1,-1],"loss_changes":[1.1779289E1,3.2787828E0,6.176138E0,1.776762E0,1.5047404E0,0E0,0E0,0E0,0E0,0E0,0E0],"parents":[2147483647,0,0,1,1,2,2,3,3,4,4],"right_children":[2,4,6,8,10,-1,-1,-1,-1,-1,-1],"split_conditions":[1E0,1E0,2E0,1E0,2E0,-2.1717783E-2,4.3852862E-2,2.1331653E-2,6.403008E-2,-2.8370542E-2,1.7274952E-2],"split_indices":[9,5,1,6,1,0,0,0,0,0,0],"split_type":[0,0,0,0,0,0,0,0,0,0,0],"sum_hessian":[8.8E1,4.4E1,4.4E1,3.8E1,6E0,4.1E1,3E0,3.6E1,2E0,4E0,2E0],"tree_param":{"num_deleted":"0","num_feature":"11","num_nodes":"11","size_leaf_vector":"1"}},{"base_weights":[3.4087192E-2,-7.815913E-3,6.1895747E-2,-6.3727826E-2,2.761401E-2,-2.281487E-3,-1.2297324E-2],"categories":[],"categories_nodes":[],"categories_segments":[],"categories_sizes":[],"default_left":[0,0,0,0,0,0,0],"id":44,"left_children":[1,3,-1,5,-1,-1,-1],"loss_changes":[4.4992027E0,2.7596915E0,0E0,2.5260222E-1,0E0,0E0,0E0],"parents":[2147483647,0,0,1,1,3,3],"right_children":[2,4,-1,6,-1,-1,-1],"split_conditions":[1E0,1E0,6.1895747E-2,1E0,2.761401E-2,-2.281487E-3,-1.2297324E-2],"split_indices":[6,4,0,5,0,0,0],"split_type":[0,0,0,0,0,0,0],"sum_hessian":[8.8E1,8.6E1,2E0,7.9E1,7E0,7.3E1,6E0],"tree_param":{"num_deleted":"0","num_feature":"11","num_nodes":"7","size_leaf_vector":"1"}},{"base_weights":[3.3224773E-2,-1.4933032E-1,8.754655E-1,-2.9298684E-1,7.9937017E-1,2.6359844E-1,1.0574547E0,-1.6546201E-2,5.3374756E-2,1.5702615E-2,5.3528666E-2,2.7894426E-2,2.52769E-3,8.678622E-2,3.192533E-2],"categories":[],"categories_nodes":[],"categories_segments":[],"categories_sizes":[],"default_left":[0,0,0,0,0,0,0,0,0,0,0,0,0,0,0],"id":45,"left_children":[1,3,5,7,9,11,13,-1,-1,-1,-1,-1,-1,-1,-1],"loss_changes":[1.381496E1,1.0319444E1,1.5029078E0,3.7080917E0,9.799819E-1,2.8528124E-1,2.3016453E0,0E0,0E0,0E0,0E0,0E0,0E0,0E0,0E0],"parents":[2147483647,0,0,1,1,2,2,3,3,4,4,5,5,6,6],"right_children":[2,4,6,8,10,12,14,-1,-1,-1,-1,-1,-1,-1,-1],"split_conditions":[1E0,2E0,2.9E1,1E0,3.3E1,2E0,3.5E1,-1.6546201E-2,5.3374756E-2,1.5702615E-2,5.3528666E-2,2.7894426E-2,2.52769E-3,8.678622E-2,3.192533E-2],"split_indices":[2,1,0,6,0,1,0,0,0,0,0,0,0,0,0],"split_type":[0,0,0,0,0,0,0,0,0,0,0,0,0,0,0],"sum_hessian":[8.8E1,7.3E1,1.5E1,6.4E1,9E0,4E0,1.1E1,6.3E1,1E0,4E0,5E0,1E0,3E0,3E0,8E0],"tree_param":{"num_deleted":"0","num_feature":"11","num_nodes":"15","size_leaf_vector":"1"}},{"base_weights":[3.443091E-2,3.660857E-1,-2.97989E-1,4.6342936E-1,-1.142777E-2,-1.9738778E-2,3.9638348E-2,1.8428981E-2,5.1734578E-2],"categories":[],"categories_nodes":[],"categories_segments":[],"categories_sizes":[],"default_left":[0,0,0,0,0,0,0,0,0],"id":46,"left_children":[1,3,5,7,-1,-1,-1,-1,-1],"loss_changes":[9.921221E0,2.710723E0,5.0636377E0,1.7318115E0,0E0,0E0,0E0,0E0,0E0],"parents":[2147483647,0,0,1,1,2,2,3,3],"right_children":[2,4,6,8,-1,-1,-1,-1,-1],"split_conditions":[1E0,1E0,1E0,1E0,-1.142777E-2,-1.9738778E-2,3.9638348E-2,1.8428981E-2,5.1734578E-2],"split_indices":[9,5,4,3,0,0,0,0,0],"split_type":[0,0,0,0,0,0,0,0,0],"sum_hessian":[8.8E1,4.4E1,4.4E1,3.8E1,6E0,4.1E1,3E0,3.4E1,4E0],"tree_param":{"num_deleted":"0","num_feature":"11","num_nodes":"9","size_leaf_vector":"1"}},{"base_weights":[3.3592936E-2,-1.376562E-1,4.1176032E-2,-1.8940653E-1,5.7511874E-2,-1.0902072E-2,4.6091773E-2],"categories":[],"categories_nodes":[],"categories_segments":[],"categories_sizes":[],"default_left":[0,0,0,0,0,0,0],"id":47,"left_children":[1,3,-1,5,-1,-1,-1],"loss_changes":[1.2152786E1,5.1498833E0,0E0,2.4920595E0,0E0,0E0,0E0],"parents":[2147483647,0,0,1,1,3,3],"right_children":[2,4,-1,6,-1,-1,-1],"split_conditions":[1E0,1E0,4.1176032E-2,1E0,5.7511874E-2,-1.0902072E-2,4.6091773E-2],"split_indices":[2,6,0,7,0,0,0],"split_type":[0,0,0,0,0,0,0],"sum_hessian":[8.8E1,7.3E1,1.5E1,7.1E1,2E0,7E1,1E0],"tree_param":{"num_deleted":"0","num_feature":"11","num_nodes":"7","size_leaf_vector":"1"}},{"base_weights":[3.3417564E-2,-1.2952065E-1,7.8491825E-1,-2.6083452E-1,7.369714E-1,2.1479054E-1,9.570616E-1,-1.5103263E-2,5.944834E-2,1.3509651E-2,5.0156243E-2,2.5706947E-2,5.70935E-4,8.1296556E-2,2.7672304E-2],"categories":[],"categories_nodes":[],"categories_segments":[],"categories_sizes":[],"default_left":[0,0,0,0,0,0,0,0,0,0,0,0,0,0,0],"id":48,"left_children":[1,3,5,7,9,11,13,-1,-1,-1,-1,-1,-1,-1,-1],"loss_changes":[1.0999552E1,8.612125E0,1.3647308E0,4.244611E0,9.713092E-1,2.9852438E-1,2.3397284E0,0E0,0E0,0E0,0E0,0E0,0E0,0E0,0E0],"parents":[2147483647,0,0,1,1,2,2,3,3,4,4,5,5,6,6],"right_children":[2,4,6,8,10,12,14,-1,-1,-1,-1,-1,-1,-1,-1],"split_conditions":[1E0,2E0,2.9E1,1E0,3.3E1,2E0,3.5E1,-1.5103263E-2,5.944834E-2,1.3509651E-2,5.0156243E-2,2.5706947E-2,5.70935E-4,8.1296556E-2,2.7672304E-2],"split_indices":[2,1,0,3,0,1,0,0,0,0,0,0,0,0,0],"split_type":[0,0,0,0,0,0,0,0,0,0,0,0,0,0,0],"sum_hessian":[8.8E1,7.3E1,1.5E1,6.4E1,9E0,4E0,1.1E1,6.3E1,1E0,4E0,5E0,1E0,3E0,3E0,8E0],"tree_param":{"num_deleted":"0","num_feature":"11","num_nodes":"15","size_leaf_vector":"1"}},{"base_weights":[3.447997E-2,-1.2158497E-1,3.7706267E-2,-1.7016685E-1,3.855698E-2,-9.87805E-3,4.3685555E-2],"categories":[],"categories_nodes":[],"categories_segments":[],"categories_sizes":[],"default_left":[0,0,0,0,0,0,0],"id":49,"left_children":[1,3,-1,5,-1,-1,-1],"loss_changes":[1.0087405E1,3.34062E0,0E0,2.2029362E0,0E0,0E0,0E0],"parents":[2147483647,0,0,1,1,3,3],"right_children":[2,4,-1,6,-1,-1,-1],"split_conditions":[1E0,1E0,3.7706267E-2,1E0,3.855698E-2,-9.87805E-3,4.3685555E-2],"split_indices":[2,3,0,7,0,0,0],"split_type":[0,0,0,0,0,0,0],"sum_hessian":[8.8E1,7.3E1,1.5E1,7E1,3E0,6.9E1,1E0],"tree_param":{"num_deleted":"0","num_feature":"11","num_nodes":"7","size_leaf_vector":"1"}},{"base_weights":[3.399278E-2,-7.2638944E-2,5.648852E-1,-1.2850794E-1,6.5552644E-2,1.5152958E-2,4.5355722E-2,-5.027016E-3,-3.7378613E-2],"categories":[],"categories_nodes":[],"categories_segments":[],"categories_sizes":[],"default_left":[0,0,0,0,0,0,0,0,0],"id":50,"left_children":[1,3,5,7,-1,-1,-1,-1,-1],"loss_changes":[5.07932E0,5.9663916E0,1.0691586E0,1.188743E0,0E0,0E0,0E0,0E0,0E0],"parents":[2147483647,0,0,1,1,2,2,3,3],"right_children":[2,4,6,8,-1,-1,-1,-1,-1],"split_conditions":[2E0,1E0,4E0,1E0,6.5552644E-2,1.5152958E-2,4.5355722E-2,-5.027016E-3,-3.7378613E-2],"split_indices":[1,3,1,4,0,0,0,0,0],"split_type":[0,0,0,0,0,0,0,0,0],"sum_hessian":[8.8E1,7.4E1,1.4E1,7.2E1,2E0,9E0,5E0,7E1,2E0],"tree_param":{"num_deleted":"0","num_feature":"11","num_nodes":"9","size_leaf_vector":"1"}},{"base_weights":[3.3233047E-2,3.152686E-1,-2.4954101E-1,4.0146807E-1,-1.0501201E-2,-1.6778512E-2,3.580753E-2,1.6701052E-2,5.4974623E-2],"categories":[],"categories_nodes":[],"categories_segments":[],"categories_sizes":[],"default_left":[0,0,0,0,0,0,0,0,0],"id":51,"left_children":[1,3,5,7,-1,-1,-1,-1,-1],"loss_changes":[7.1766305E0,2.1219158E0,3.978814E0,1.4688544E0,0E0,0E0,0E0,0E0,0E0],"parents":[2147483647,0,0,1,1,2,2,3,3],"right_children":[2,4,6,8,-1,-1,-1,-1,-1],"split_conditions":[1E0,1E0,1E0,1E0,-1.0501201E-2,-1.6778512E-2,3.580753E-2,1.6701052E-2,5.4974623E-2],"split_indices":[9,5,4,6,0,0,0,0,0],"split_type":[0,0,0,0,0,0,0,0,0],"sum_hessian":[8.8E1,4.4E1,4.4E1,3.8E1,6E0,4.1E1,3E0,3.6E1,2E0],"tree_param":{"num_deleted":"0","num_feature":"11","num_nodes":"9","size_leaf_vector":"1"}},{"base_weights":[3.2472495E-2,3.0086452E-1,-1.18320575E-2,4.6197745E-1,4.1634619E-4,1.8905219E-2,5.3142138E-2],"categories":[],"categories_nodes":[],"categories_segments":[],"categories_sizes":[],"default_left":[0,0,0,0,0,0,0],"id":52,"left_children":[1,3,-1,5,-1,-1,-1],"loss_changes":[6.499485E0,2.1170745E0,0E0,1.0596309E0,0E0,0E0,0E0],"parents":[2147483647,0,0,1,1,3,3],"right_children":[2,4,-1,6,-1,-1,-1],"split_conditions":[1E0,1E0,-1.18320575E-2,1E0,4.1634619E-4,1.8905219E-2,5.3142138E-2],"split_indices":[9,8,0,6,0,0,0],"split_type":[0,0,0,0,0,0,0],"sum_hessian":[8.8E1,4.4E1,4.4E1,2.8E1,1.6E1,2.6E1,2E0],"tree_param":{"num_deleted":"0","num_feature":"11","num_nodes":"7","size_leaf_vector":"1"}},{"base_weights":[3.153012E-2,-1.09341346E-1,6.8109E-1,-2.232821E-1,6.422077E-1,8.7764704E-1,2.0722039E-1,-4.6460643E-2,-8.087928E-3,9.726515E-3,4.5411877E-2,6.989263E-2,1.903468E-2,-2.4279E-3,2.395924E-2],"categories":[],"categories_nodes":[],"categories_segments":[],"categories_sizes":[],"default_left":[0,0,0,0,0,0,0,0,0,0,0,0,0,0,0],"id":53,"left_children":[1,3,5,7,9,11,13,-1,-1,-1,-1,-1,-1,-1,-1],"loss_changes":[8.218368E0,6.4801655E0,1.3084126E0,2.6727302E0,1.0142765E0,2.3115435E0,4.40644E-1,0E0,0E0,0E0,0E0,0E0,0E0,0E0,0E0],"parents":[2147483647,0,0,1,1,2,2,3,3,4,4,5,5,6,6],"right_children":[2,4,6,8,10,12,14,-1,-1,-1,-1,-1,-1,-1,-1],"split_conditions":[1E0,2E0,2E0,2.6E1,3.3E1,3.5E1,2.9E1,-4.6460643E-2,-8.087928E-3,9.726515E-3,4.5411877E-2,6.989263E-2,1.903468E-2,-2.4279E-3,2.395924E-2],"split_indices":[2,1,1,0,0,0,0,0,0,0,0,0,0,0,0],"split_type":[0,0,0,0,0,0,0,0,0,0,0,0,0,0,0],"sum_hessian":[8.8E1,7.3E1,1.5E1,6.4E1,9E0,1E1,5E0,4E0,6E1,4E0,5E0,4E0,6E0,3E0,2E0],"tree_param":{"num_deleted":"0","num_feature":"11","num_nodes":"15","size_leaf_vector":"1"}},{"base_weights":[3.1201372E-2,-8.044352E-2,5.0878227E-1,-1.2609835E-1,5.1343422E-2,3.0957997E-1,1.0787948E0,-4.460222E-2,-3.3528064E-3,1.8778076E-2,-1.3704515E-2,6.1721224E-2,1.5297651E-2],"categories":[],"categories_nodes":[],"categories_segments":[],"categories_sizes":[],"default_left":[0,0,0,0,0,0,0,0,0,0,0,0,0],"id":54,"left_children":[1,3,5,7,-1,9,11,-1,-1,-1,-1,-1,-1],"loss_changes":[4.7863607E0,3.8199384E0,1.5963402E0,3.1510262E0,0E0,6.4209867E-1,1.0343218E-1,0E0,0E0,0E0,0E0,0E0,0E0],"parents":[2147483647,0,0,1,1,2,2,3,3,5,5,6,6],"right_children":[2,4,6,8,-1,10,12,-1,-1,-1,-1,-1,-1],"split_conditions":[4.1E1,1E0,5.5E1,2.6E1,5.1343422E-2,5E1,1E0,-4.460222E-2,-3.3528064E-3,1.8778076E-2,-1.3704515E-2,6.1721224E-2,1.5297651E-2],"split_indices":[0,6,0,0,0,0,4,0,0,0,0,0,0],"split_type":[0,0,0,0,0,0,0,0,0,0,0,0,0],"sum_hessian":[8.8E1,7.2E1,1.6E1,7E1,2E0,1.3E1,3E0,4E0,6.6E1,1.2E1,1E0,2E0,1E0],"tree_param":{"num_deleted":"0","num_feature":"11","num_nodes":"13","size_leaf_vector":"1"}},{"base_weights":[3.0601755E-2,-1.0392944E-1,3.2544795E-2,-1.4817636E-1,4.9631987E-2,-8.593541E-3,3.8353253E-2],"categories":[],"categories_nodes":[],"categories_segments":[],"categories_sizes":[],"default_left":[0,0,0,0,0,0,0],"id":55,"left_children":[1,3,-1,5,-1,-1,-1],"loss_changes":[7.4946003E0,3.7375507E0,0E0,1.6932389E0,0E0,0E0,0E0],"parents":[2147483647,0,0,1,1,3,3],"right_children":[2,4,-1,6,-1,-1,-1],"split_conditions":[1E0,1E0,3.2544795E-2,1E0,4.9631987E-2,-8.593541E-3,3.8353253E-2],"split_indices":[2,6,0,7,0,0,0],"split_type":[0,0,0,0,0,0,0],"sum_hessian":[8.8E1,7.3E1,1.5E1,7.1E1,2E0,7E1,1E0],"tree_param":{"num_deleted":"0","num_feature":"11","num_nodes":"7","size_leaf_vector":"1"}},{"base_weights":[3.0329421E-2,2.6411474E-1,-2.0412989E-1,4.0320686E-1,1.130379E-2,-1.4156761E-2,3.382293E-2,1.6322859E-2,4.797758E-2,-6.2311827E-3,3.4358654E-2],"categories":[],"categories_nodes":[],"categories_segments":[],"categories_sizes":[],"default_left":[0,0,0,0,0,0,0,0,0,0,0],"id":56,"left_children":[1,3,5,7,9,-1,-1,-1,-1,-1,-1],"loss_changes":[4.932284E0,1.5778224E0,3.3222327E0,9.250264E-1,1.647414E0,0E0,0E0,0E0,0E0,0E0,0E0],"parents":[2147483647,0,0,1,1,2,2,3,3,4,4],"right_children":[2,4,6,8,10,-1,-1,-1,-1,-1,-1],"split_conditions":[1E0,1E0,2E0,1E0,2E0,-1.4156761E-2,3.382293E-2,1.6322859E-2,4.797758E-2,-6.2311827E-3,3.4358654E-2],"split_indices":[9,8,1,6,1,0,0,0,0,0,0],"split_type":[0,0,0,0,0,0,0,0,0,0,0],"sum_hessian":[8.8E1,4.4E1,4.4E1,2.8E1,1.6E1,4.1E1,3E0,2.6E1,2E0,1.4E1,2E0],"tree_param":{"num_deleted":"0","num_feature":"11","num_nodes":"11","size_leaf_vector":"1"}},{"base_weights":[3.0072412E-2,-9.466045E-2,6.050824E-1,-2.1259473E-1,4.7507694E-1,9.907694E-2,7.6549447E-1,-1.3302979E-2,4.6378337E-2,2.619212E-2,-2.7527213E-3,1.3483286E-2,-5.2268743E-3,7.135944E-2,1.9317659E-2],"categories":[],"categories_nodes":[],"categories_segments":[],"categories_sizes":[],"default_left":[0,0,0,0,0,0,0,0,0,0,0,0,0,0,0],"id":57,"left_children":[1,3,5,7,9,11,13,-1,-1,-1,-1,-1,-1,-1,-1],"loss_changes":[6.4405923E0,5.073175E0,1.222868E0,4.0262175E0,3.6491728E-1,2.0186186E-1,2.4591088E0,0E0,0E0,0E0,0E0,0E0,0E0,0E0,0E0],"parents":[2147483647,0,0,1,1,2,2,3,3,4,4,5,5,6,6],"right_children":[2,4,6,8,10,12,14,-1,-1,-1,-1,-1,-1,-1,-1],"split_conditions":[1E0,4.1E1,2.9E1,1E0,1E0,2.7E1,3.5E1,-1.3302979E-2,4.6378337E-2,2.619212E-2,-2.7527213E-3,1.3483286E-2,-5.2268743E-3,7.135944E-2,1.9317659E-2],"split_indices":[2,0,0,6,5,0,0,0,0,0,0,0,0,0,0],"split_type":[0,0,0,0,0,0,0,0,0,0,0,0,0,0,0],"sum_hessian":[8.8E1,7.3E1,1.5E1,6.1E1,1.2E1,4E0,1.1E1,5.9E1,2E0,1.1E1,1E0,2E0,2E0,3E0,8E0],"tree_param":{"num_deleted":"0","num_feature":"11","num_nodes":"15","size_leaf_vector":"1"}},{"base_weights":[3.0315395E-2,-1.485301E-2,9.9385726E-1,-4.7229793E-2,4.4832397E-2,5.687904E-2,1.4067173E-2,-4.1375995E-2,1.06435495E-4],"categories":[],"categories_nodes":[],"categories_segments":[],"categories_sizes":[],"default_left":[0,0,0,0,0,0,0,0,0],"id":58,"left_children":[1,3,5,7,-1,-1,-1,-1,-1],"loss_changes":[3.8881886E0,2.5803347E0,8.956885E-2,3.2369335E0,0E0,0E0,0E0,0E0,0E0],"parents":[2147483647,0,0,1,1,2,2,3,3],"right_children":[2,4,6,8,-1,-1,-1,-1,-1],"split_conditions":[5.5E1,1E0,1E0,2.6E1,4.4832397E-2,5.687904E-2,1.4067173E-2,-4.1375995E-2,1.06435495E-4],"split_indices":[0,6,4,0,0,0,0,0,0],"split_type":[0,0,0,0,0,0,0,0,0],"sum_hessian":[8.8E1,8.5E1,3E0,8.3E1,2E0,2E0,1E0,4E0,7.9E1],"tree_param":{"num_deleted":"0","num_feature":"11","num_nodes":"9","size_leaf_vector":"1"}},{"base_weights":[2.9636893E-2,-8.9191005E-2,2.8868182E-2,-1.2778352E-1,4.333799E-2,-9.495242E-3,1.9646248E-2],"categories":[],"categories_nodes":[],"categories_segments":[],"categories_sizes":[],"default_left":[0,0,0,0,0,0,0],"id":59,"left_children":[1,3,-1,5,-1,-1,-1],"loss_changes":[5.84408E0,2.8408062E0,0E0,2.4036086E0,0E0,0E0,0E0],"parents":[2147483647,0,0,1,1,3,3],"right_children":[2,4,-1,6,-1,-1,-1],"split_conditions":[1E0,1E0,2.8868182E-2,1E0,4.333799E-2,-9.495242E-3,1.9646248E-2],"split_indices":[2,6,0,4,0,0,0],"split_type":[0,0,0,0,0,0,0],"sum_hessian":[8.8E1,7.3E1,1.5E1,7.1E1,2E0,6.4E1,7E0],"tree_param":{"num_deleted":"0","num_feature":"11","num_nodes":"7","size_leaf_vector":"1"}},{"base_weights":[2.9080413E-2,2.3233472E-1,-1.7482013E-1,1.6120757E-1,7.691104E-1,-1.2395745E-2,3.1818997E-2,6.0162754E-3,3.194693E-2,6.0254343E-2,3.8381894E-3],"categories":[],"categories_nodes":[],"categories_segments":[],"categories_sizes":[],"default_left":[0,0,0,0,0,0,0,0,0,0,0],"id":60,"left_children":[1,3,5,7,9,-1,-1,-1,-1,-1,-1],"loss_changes":[3.7291024E0,1.5940833E0,2.8260198E0,7.238753E-1,1.4167275E0,0E0,0E0,0E0,0E0,0E0,0E0],"parents":[2147483647,0,0,1,1,2,2,3,3,4,4],"right_children":[2,4,6,8,10,-1,-1,-1,-1,-1,-1],"split_conditions":[1E0,1E0,2E0,4E0,2E0,-1.2395745E-2,3.1818997E-2,6.0162754E-3,3.194693E-2,6.0254343E-2,3.8381894E-3],"split_indices":[9,3,1,1,1,0,0,0,0,0,0],"split_type":[0,0,0,0,0,0,0,0,0,0,0],"sum_hessian":[8.8E1,4.4E1,4.4E1,4E1,4E0,4.1E1,3E0,3.8E1,2E0,2E0,2E0],"tree_param":{"num_deleted":"0","num_feature":"11","num_nodes":"11","size_leaf_vector":"1"}},{"base_weights":[2.8991373E-2,-2.0508947E-2,3.58582E-2,-6.800148E-2,7.4347335E-1,-4.4849715E-3,4.115343E-2,5.8245867E-2,3.7102462E-3],"categories":[],"categories_nodes":[],"categories_segments":[],"categories_sizes":[],"default_left":[0,0,0,0,0,0,0,0,0],"id":61,"left_children":[1,3,-1,5,7,-1,-1,-1,-1],"loss_changes":[3.046472E0,3.0983672E0,0E0,1.6205809E0,1.323853E0,0E0,0E0,0E0,0E0],"parents":[2147483647,0,0,1,1,3,3,4,4],"right_children":[2,4,-1,6,8,-1,-1,-1,-1],"split_conditions":[4E0,1E0,3.58582E-2,1E0,2E0,-4.4849715E-3,4.115343E-2,5.8245867E-2,3.7102462E-3],"split_indices":[1,3,0,6,1,0,0,0,0],"split_type":[0,0,0,0,0,0,0,0,0],"sum_hessian":[8.8E1,8.3E1,5E0,7.9E1,4E0,7.8E1,1E0,2E0,2E0],"tree_param":{"num_deleted":"0","num_feature":"11","num_nodes":"9","size_leaf_vector":"1"}},{"base_weights":[2.9052889E-2,-6.5981455E-2,4.3543255E-1,1.6693994E-1,-2.7332166E-1,2.6649365E-1,4.5893032E-2,2.0376578E-2,-1.6407749E-2,-4.4614844E-2,-7.802593E-3,1.6784918E-2,-1.5829181E-2],"categories":[],"categories_nodes":[],"categories_segments":[],"categories_sizes":[],"default_left":[0,0,0,0,0,0,0,0,0,0,0,0,0],"id":62,"left_children":[1,3,5,7,9,11,-1,-1,-1,-1,-1,-1,-1],"loss_changes":[3.4659128E0,3.571088E0,1.1409109E0,4.3027825E0,2.691652E0,6.712001E-1,0E0,0E0,0E0,0E0,0E0,0E0,0E0],"parents":[2147483647,0,0,1,1,2,2,3,3,4,4,5,5],"right_children":[2,4,6,8,10,12,-1,-1,-1,-1,-1,-1,-1],"split_conditions":[4.1E1,1E0,5.5E1,3.5E1,2.8E1,5E1,4.5893032E-2,2.0376578E-2,-1.6407749E-2,-4.4614844E-2,-7.802593E-3,1.6784918E-2,-1.5829181E-2],"split_indices":[0,9,0,0,0,0,0,0,0,0,0,0,0],"split_type":[0,0,0,0,0,0,0,0,0,0,0,0,0],"sum_hessian":[8.8E1,7.2E1,1.6E1,3.4E1,3.8E1,1.3E1,3E0,2.3E1,1.1E1,5E0,3.3E1,1.2E1,1E0],"tree_param":{"num_deleted":"0","num_feature":"11","num_nodes":"13","size_leaf_vector":"1"}},{"base_weights":[2.7582228E-2,-6.33461E-2,4.164167E-1,1.5870635E-1,-2.6099968E-1,2.5323716E-1,4.417205E-2,1.9400196E-2,-1.5655717E-2,-4.2755894E-2,-7.4239424E-3,1.6010223E-2,-1.5433455E-2],"categories":[],"categories_nodes":[],"categories_segments":[],"categories_sizes":[],"default_left":[0,0,0,0,0,0,0,0,0,0,0,0,0],"id":63,"left_children":[1,3,5,7,9,11,-1,-1,-1,-1,-1,-1,-1],"loss_changes":[3.1730685E0,3.2453532E0,1.0718298E0,3.9080458E0,2.480209E0,6.256482E-1,0E0,0E0,0E0,0E0,0E0,0E0,0E0],"parents":[2147483647,0,0,1,1,2,2,3,3,4,4,5,5],"right_children":[2,4,6,8,10,12,-1,-1,-1,-1,-1,-1,-1],"split_conditions":[4.1E1,1E0,5.5E1,3.5E1,2.8E1,5E1,4.417205E-2,1.9400196E-2,-1.5655717E-2,-4.2755894E-2,-7.4239424E-3,1.6010223E-2,-1.5433455E-2],"split_indices":[0,9,0,0,0,0,0,0,0,0,0,0,0],"split_type":[0,0,0,0,0,0,0,0,0,0,0,0,0],"sum_hessian":[8.8E1,7.2E1,1.6E1,3.4E1,3.8E1,1.3E1,3E0,2.3E1,1.1E1,5E0,3.3E1,1.2E1,1E0],"tree_param":{"num_deleted":"0","num_feature":"11","num_nodes":"13","size_leaf_vector":"1"}},{"base_weights":[2.6184117E-2,-1.3832963E-2,7.012377E-1,-3.263106E-2,3.9130177E-2,1.8605435E-2,5.044384E-2,-2.3921572E-3,3.0749297E-2],"categories":[],"categories_nodes":[],"categories_segments":[],"categories_sizes":[],"default_left":[0,0,0,0,0,0,0,0,0],"id":64,"left_children":[1,3,5,7,-1,-1,-1,-1,-1],"loss_changes":[2.413917E0,1.2981137E0,1.3085294E-1,8.569576E-1,0E0,0E0,0E0,0E0,0E0],"parents":[2147483647,0,0,1,1,2,2,3,3],"right_children":[2,4,6,8,-1,-1,-1,-1,-1],"split_conditions":[1E0,1E0,1E0,1E0,3.9130177E-2,1.8605435E-2,5.044384E-2,-2.3921572E-3,3.0749297E-2],"split_indices":[3,6,4,7,0,0,0,0,0],"split_type":[0,0,0,0,0,0,0,0,0],"sum_hessian":[8.8E1,8.4E1,4E0,8.3E1,1E0,3E0,1E0,8.2E1,1E0],"tree_param":{"num_deleted":"0","num_feature":"11","num_nodes":"9","size_leaf_vector":"1"}},{"base_weights":[2.6409037E-2,-6.0611036E-2,3.9853E-1,-1.1339905E-1,6.799858E-1,2.4283771E-1,4.2191025E-2,-3.5075404E-2,-3.3207648E-3,4.6047162E-2,1.0618321E-2,1.5381696E-2,-1.4987814E-2],"categories":[],"categories_nodes":[],"categories_segments":[],"categories_sizes":[],"default_left":[0,0,0,0,0,0,0,0,0,0,0,0,0],"id":65,"left_children":[1,3,5,7,9,11,-1,-1,-1,-1,-1,-1,-1],"loss_changes":[2.9061527E0,2.9310184E0,9.736695E-1,1.8599875E0,3.6780453E-1,5.844274E-1,0E0,0E0,0E0,0E0,0E0,0E0,0E0],"parents":[2147483647,0,0,1,1,2,2,3,3,4,4,5,5],"right_children":[2,4,6,8,10,12,-1,-1,-1,-1,-1,-1,-1],"split_conditions":[4.1E1,1E0,5.5E1,2.6E1,3.1E1,5E1,4.2191025E-2,-3.5075404E-2,-3.3207648E-3,4.6047162E-2,1.0618321E-2,1.5381696E-2,-1.4987814E-2],"split_indices":[0,3,0,0,0,0,0,0,0,0,0,0,0],"split_type":[0,0,0,0,0,0,0,0,0,0,0,0,0],"sum_hessian":[8.8E1,7.2E1,1.6E1,6.8E1,4E0,1.3E1,3E0,4E0,6.4E1,2E0,2E0,1.2E1,1E0],"tree_param":{"num_deleted":"0","num_feature":"11","num_nodes":"13","size_leaf_vector":"1"}},{"base_weights":[2.5772288E-2,-5.7330277E-2,3.8110846E-1,-1.0828563E-1,6.5731966E-1,2.3072387E-1,8.121774E-1,-3.367239E-2,-3.1572846E-3,4.4512257E-2,1.0264381E-2,1.4671765E-2,-1.4613116E-2,4.862342E-2,8.282614E-3],"categories":[],"categories_nodes":[],"categories_segments":[],"categories_sizes":[],"default_left":[0,0,0,0,0,0,0,0,0,0,0,0,0,0,0],"id":66,"left_children":[1,3,5,7,9,11,13,-1,-1,-1,-1,-1,-1,-1,-1],"loss_changes":[2.649961E0,2.7294908E0,9.1465545E-1,1.7177598E0,3.4369254E-1,5.44921E-1,2.534368E-1,0E0,0E0,0E0,0E0,0E0,0E0,0E0,0E0],"parents":[2147483647,0,0,1,1,2,2,3,3,4,4,5,5,6,6],"right_children":[2,4,6,8,10,12,14,-1,-1,-1,-1,-1,-1,-1,-1],"split_conditions":[4.1E1,1E0,5.5E1,2.6E1,3.1E1,5E1,1E0,-3.367239E-2,-3.1572846E-3,4.4512257E-2,1.0264381E-2,1.4671765E-2,-1.4613116E-2,4.862342E-2,8.282614E-3],"split_indices":[0,3,0,0,0,0,4,0,0,0,0,0,0,0,0],"split_type":[0,0,0,0,0,0,0,0,0,0,0,0,0,0,0],"sum_hessian":[8.8E1,7.2E1,1.6E1,6.8E1,4E0,1.3E1,3E0,4E0,6.4E1,2E0,2E0,1.2E1,1E0,2E0,1E0],"tree_param":{"num_deleted":"0","num_feature":"11","num_nodes":"15","size_leaf_vector":"1"}},{"base_weights":[2.5325375E-2,-5.4217927E-2,3.6540395E-1,1.4789051E-1,-2.342071E-1,2.1919188E-1,7.857952E-1,1.8150242E-2,-1.4733116E-2,-2.1733535E-2,1.1907731E-3,9.356797E-4,2.0849839E-2,4.700265E-2,8.075547E-3],"categories":[],"categories_nodes":[],"categories_segments":[],"categories_sizes":[],"default_left":[0,0,0,0,0,0,0,0,0,0,0,0,0,0,0],"id":67,"left_children":[1,3,5,7,9,11,13,-1,-1,-1,-1,-1,-1,-1,-1],"loss_changes":[2.427348E0,2.6901822E0,8.7268686E-1,3.4389443E0,2.0275927E0,5.4737467E-1,2.3337388E-1,0E0,0E0,0E0,0E0,0E0,0E0,0E0,0E0],"parents":[2147483647,0,0,1,1,2,2,3,3,4,4,5,5,6,6],"right_children":[2,4,6,8,10,12,14,-1,-1,-1,-1,-1,-1,-1,-1],"split_conditions":[4.1E1,1E0,5.5E1,3.5E1,3.2E1,1E0,1E0,1.8150242E-2,-1.4733116E-2,-2.1733535E-2,1.1907731E-3,9.356797E-4,2.0849839E-2,4.700265E-2,8.075547E-3],"split_indices":[0,9,0,0,0,9,4,0,0,0,0,0,0,0,0],"split_type":[0,0,0,0,0,0,0,0,0,0,0,0,0,0,0],"sum_hessian":[8.8E1,7.2E1,1.6E1,3.4E1,3.8E1,1.3E1,3E0,2.3E1,1.1E1,2.1E1,1.7E1,7E0,6E0,2E0,1E0],"tree_param":{"num_deleted":"0","num_feature":"11","num_nodes":"15","size_leaf_vector":"1"}},{"base_weights":[2.4730332E-2,-8.120022E-2,2.5655676E-2,-1.1402821E-1,3.6686912E-2,-6.5291817E-3,2.6535153E-2],"categories":[],"categories_nodes":[],"categories_segments":[],"categories_sizes":[],"default_left":[0,0,0,0,0,0,0],"id":68,"left_children":[1,3,-1,5,-1,-1,-1],"loss_changes":[4.6460533E0,2.0633733E0,0E0,8.3781433E-1,0E0,0E0,0E0],"parents":[2147483647,0,0,1,1,3,3],"right_children":[2,4,-1,6,-1,-1,-1],"split_conditions":[1E0,1E0,2.5655676E-2,1E0,3.6686912E-2,-6.5291817E-3,2.6535153E-2],"split_indices":[2,6,0,7,0,0,0],"split_type":[0,0,0,0,0,0,0],"sum_hessian":[8.8E1,7.3E1,1.5E1,7.1E1,2E0,7E1,1E0],"tree_param":{"num_deleted":"0","num_feature":"11","num_nodes":"7","size_leaf_vector":"1"}},{"base_weights":[2.4419062E-2,-1.8244697E-2,6.1764187E-1,1.496211E-1,-1.896729E-1,5.245006E-3,3.496051E-2,1.6943969E-2,-4.248494E-3,-2.1854857E-2,2.756314E-3],"categories":[],"categories_nodes":[],"categories_segments":[],"categories_sizes":[],"default_left":[0,0,0,0,0,0,0,0,0,0,0],"id":69,"left_children":[1,3,5,7,9,-1,-1,-1,-1,-1,-1],"loss_changes":[2.2637799E0,2.4456413E0,1.7759371E-1,1.9379206E0,2.5680041E0,0E0,0E0,0E0,0E0,0E0,0E0],"parents":[2147483647,0,0,1,1,2,2,3,3,4,4],"right_children":[2,4,6,8,10,-1,-1,-1,-1,-1,-1],"split_conditions":[4E0,1E0,3E1,3.5E1,3.2E1,5.245006E-3,3.496051E-2,1.6943969E-2,-4.248494E-3,-2.1854857E-2,2.756314E-3],"split_indices":[1,9,0,0,0,0,0,0,0,0,0],"split_type":[0,0,0,0,0,0,0,0,0,0,0],"sum_hessian":[8.8E1,8.3E1,5E0,4.2E1,4.1E1,1E0,4E0,2.3E1,1.9E1,2E1,2.1E1],"tree_param":{"num_deleted":"0","num_feature":"11","num_nodes":"11","size_leaf_vector":"1"}},{"base_weights":[2.357793E-2,-7.624224E-2,4.8377258E-1,-1.3337229E-1,5.934605E-1,-1.9554137E-3,6.458449E-1,-9.651265E-3,1.18941525E-2,5.113876E-3,3.356208E-2,1.7080797E-2,-8.662611E-3,6.410237E-2,1.4566384E-2],"categories":[],"categories_nodes":[],"categories_segments":[],"categories_sizes":[],"default_left":[0,0,0,0,0,0,0,0,0,0,0,0,0,0,0],"id":70,"left_children":[1,3,5,7,9,11,13,-1,-1,-1,-1,-1,-1,-1,-1],"loss_changes":[4.125251E0,2.9104028E0,1.2608314E0,1.574026E0,1.6057563E-1,3.5344905E-1,2.3330402E0,0E0,0E0,0E0,0E0,0E0,0E0,0E0,0E0],"parents":[2147483647,0,0,1,1,2,2,3,3,4,4,5,5,6,6],"right_children":[2,4,6,8,10,12,14,-1,-1,-1,-1,-1,-1,-1,-1],"split_conditions":[1E0,4E0,2.9E1,4.1E1,3E1,2E0,3.5E1,-9.651265E-3,1.18941525E-2,5.113876E-3,3.356208E-2,1.7080797E-2,-8.662611E-3,6.410237E-2,1.4566384E-2],"split_indices":[2,1,0,0,0,1,0,0,0,0,0,0,0,0,0],"split_type":[0,0,0,0,0,0,0,0,0,0,0,0,0,0,0],"sum_hessian":[8.8E1,7.3E1,1.5E1,6.8E1,5E0,4E0,1.1E1,5.9E1,9E0,1E0,4E0,1E0,3E0,3E0,8E0],"tree_param":{"num_deleted":"0","num_feature":"11","num_nodes":"15","size_leaf_vector":"1"}},{"base_weights":[2.3837259E-2,-8.448359E-3,7.120187E-1,-4.612691E-2,6.111695E-1,4.325204E-2,6.3238144E-3,-2.9934747E-2,-5.057256E-4,4.1677795E-2,9.253002E-3],"categories":[],"categories_nodes":[],"categories_segments":[],"categories_sizes":[],"default_left":[0,0,0,0,0,0,0,0,0,0,0],"id":71,"left_children":[1,3,5,7,9,-1,-1,-1,-1,-1,-1],"loss_changes":[1.9834498E0,2.0359733E0,2.489965E-1,1.6256869E0,3.1954706E-1,0E0,0E0,0E0,0E0,0E0,0E0],"parents":[2147483647,0,0,1,1,2,2,3,3,4,4],"right_children":[2,4,6,8,10,-1,-1,-1,-1,-1,-1],"split_conditions":[5.5E1,1E0,1E0,2.6E1,3.1E1,4.325204E-2,6.3238144E-3,-2.9934747E-2,-5.057256E-4,4.1677795E-2,9.253002E-3],"split_indices":[0,3,4,0,0,0,0,0,0,0,0],"split_type":[0,0,0,0,0,0,0,0,0,0,0],"sum_hessian":[8.8E1,8.5E1,3E0,8.1E1,4E0,2E0,1E0,4E0,7.7E1,2E0,2E0],"tree_param":{"num_deleted":"0","num_feature":"11","num_nodes":"11","size_leaf_vector":"1"}},{"base_weights":[2.3432722E-2,-4.655289E-2,3.2258078E-1,-9.206301E-2,5.907973E-1,1.9490185E-1,6.888118E-1,-5.7524103E-3,3.6773264E-2,4.0288534E-2,8.944575E-3,1.2826695E-2,-1.5157866E-2,4.1810308E-2,6.165719E-3],"categories":[],"categories_nodes":[],"categories_segments":[],"categories_sizes":[],"default_left":[0,0,0,0,0,0,0,0,0,0,0,0,0,0,0],"id":72,"left_children":[1,3,5,7,9,11,13,-1,-1,-1,-1,-1,-1,-1,-1],"loss_changes":[1.8783263E0,2.1718202E0,6.6066897E-1,1.3970562E0,2.985984E-1,5.075198E-1,2.3028827E-1,0E0,0E0,0E0,0E0,0E0,0E0,0E0,0E0],"parents":[2147483647,0,0,1,1,2,2,3,3,4,4,5,5,6,6],"right_children":[2,4,6,8,10,12,14,-1,-1,-1,-1,-1,-1,-1,-1],"split_conditions":[4.1E1,1E0,5.5E1,1E0,3.1E1,5E1,1E0,-5.7524103E-3,3.6773264E-2,4.0288534E-2,8.944575E-3,1.2826695E-2,-1.5157866E-2,4.1810308E-2,6.165719E-3],"split_indices":[0,3,0,6,0,0,4,0,0,0,0,0,0,0,0],"split_type":[0,0,0,0,0,0,0,0,0,0,0,0,0,0,0],"sum_hessian":[8.8E1,7.2E1,1.6E1,6.8E1,4E0,1.3E1,3E0,6.7E1,1E0,2E0,2E0,1.2E1,1E0,2E0,1E0],"tree_param":{"num_deleted":"0","num_feature":"11","num_nodes":"15","size_leaf_vector":"1"}},{"base_weights":[2.3675688E-2,-7.140057E-2,4.6192363E-1,-1.5177067E-1,1.5869768E-2,4.83284E-3,6.138845E-1,-9.314775E-3,1.9770646E-2,9.03008E-3,-8.627343E-3,6.1933227E-2,1.3399755E-2],"categories":[],"categories_nodes":[],"categories_segments":[],"categories_sizes":[],"default_left":[0,0,0,0,0,0,0,0,0,0,0,0,0],"id":73,"left_children":[1,3,5,7,-1,9,11,-1,-1,-1,-1,-1,-1],"loss_changes":[3.741342E0,2.3604913E0,1.1083915E0,1.2449311E0,0E0,1.8705128E-1,2.2613015E0,0E0,0E0,0E0,0E0,0E0,0E0],"parents":[2147483647,0,0,1,1,2,2,3,3,5,5,6,6],"right_children":[2,4,6,8,-1,10,12,-1,-1,-1,-1,-1,-1],"split_conditions":[1E0,4.1E1,2.9E1,1E0,1.5869768E-2,2.7E1,3.5E1,-9.314775E-3,1.9770646E-2,9.03008E-3,-8.627343E-3,6.1933227E-2,1.3399755E-2],"split_indices":[2,0,0,3,0,0,0,0,0,0,0,0,0],"split_type":[0,0,0,0,0,0,0,0,0,0,0,0,0],"sum_hessian":[8.8E1,7.3E1,1.5E1,6.1E1,1.2E1,4E0,1.1E1,5.8E1,3E0,2E0,2E0,3E0,8E0],"tree_param":{"num_deleted":"0","num_feature":"11","num_nodes":"13","size_leaf_vector":"1"}},{"base_weights":[2.3638608E-2,-6.7474864E-2,2.2178052E-2,-1.04307435E-1,2.4943227E-1,-6.7104595E-3,-4.2332202E-4,1.709703E-3,4.3902494E-2],"categories":[],"categories_nodes":[],"categories_segments":[],"categories_sizes":[],"default_left":[0,0,0,0,0,0,0,0,0],"id":74,"left_children":[1,3,-1,5,7,-1,-1,-1,-1],"loss_changes":[3.4351218E0,8.897829E-1,0E0,1.9087332E-1,1.052396E0,0E0,0E0,0E0,0E0],"parents":[2147483647,0,0,1,1,3,3,4,4],"right_children":[2,4,-1,6,8,-1,-1,-1,-1],"split_conditions":[1E0,1E0,2.2178052E-2,1E0,1E0,-6.7104595E-3,-4.2332202E-4,1.709703E-3,4.3902494E-2],"split_indices":[2,4,0,8,3,0,0,0,0],"split_type":[0,0,0,0,0,0,0,0,0],"sum_hessian":[8.8E1,7.3E1,1.5E1,6.6E1,7E0,5E1,1.6E1,6E0,1E0],"tree_param":{"num_deleted":"0","num_feature":"11","num_nodes":"9","size_leaf_vector":"1"}},{"base_weights":[2.3138246E-2,-7.892293E-3,5.4602975E-1,-2.5250325E-2,3.6254562E-2,1.2724394E-2,4.2804934E-2,-1.5064911E-3,1.63642E-3],"categories":[],"categories_nodes":[],"categories_segments":[],"categories_sizes":[],"default_left":[0,0,0,0,0,0,0,0,0],"id":75,"left_children":[1,3,5,7,-1,-1,-1,-1,-1],"loss_changes":[1.4483883E0,1.0997766E0,2.341237E-1,2.4750285E-2,0E0,0E0,0E0,0E0,0E0],"parents":[2147483647,0,0,1,1,2,2,3,3],"right_children":[2,4,6,8,-1,-1,-1,-1,-1],"split_conditions":[1E0,1E0,1E0,1E0,3.6254562E-2,1.2724394E-2,4.2804934E-2,-1.5064911E-3,1.63642E-3],"split_indices":[3,6,4,4,0,0,0,0,0],"split_type":[0,0,0,0,0,0,0,0,0],"sum_hessian":[8.8E1,8.4E1,4E0,8.3E1,1E0,3E0,1E0,7.7E1,6E0],"tree_param":{"num_deleted":"0","num_feature":"11","num_nodes":"9","size_leaf_vector":"1"}},{"base_weights":[2.3014067E-2,-6.3843496E-2,4.2329192E-1,-1.4059253E-1,1.5355068E-2,-1.1865616E-2,5.6933326E-1,-8.59351E-3,1.7795062E-2,8.040023E-3,-9.028825E-3,5.8835544E-2,1.180642E-2],"categories":[],"categories_nodes":[],"categories_segments":[],"categories_sizes":[],"default_left":[0,0,0,0,0,0,0,0,0,0,0,0,0],"id":76,"left_children":[1,3,5,7,-1,9,11,-1,-1,-1,-1,-1,-1],"loss_changes":[3.1213014E0,2.149931E0,1.0235713E0,1.0239773E0,0E0,1.7469E-1,2.1507194E0,0E0,0E0,0E0,0E0,0E0,0E0],"parents":[2147483647,0,0,1,1,2,2,3,3,5,5,6,6],"right_children":[2,4,6,8,-1,10,12,-1,-1,-1,-1,-1,-1],"split_conditions":[1E0,4.1E1,2.9E1,1E0,1.5355068E-2,2.7E1,3.5E1,-8.59351E-3,1.7795062E-2,8.040023E-3,-9.028825E-3,5.8835544E-2,1.180642E-2],"split_indices":[2,0,0,3,0,0,0,0,0,0,0,0,0],"split_type":[0,0,0,0,0,0,0,0,0,0,0,0,0],"sum_hessian":[8.8E1,7.3E1,1.5E1,6.1E1,1.2E1,4E0,1.1E1,5.8E1,3E0,2E0,2E0,3E0,8E0],"tree_param":{"num_deleted":"0","num_feature":"11","num_nodes":"13","size_leaf_vector":"1"}},{"base_weights":[2.2921931E-2,-1.4460463E-2,5.4245514E-1,1.15756325E-1,-1.4743336E-1,5.5065276E-3,3.0344695E-2,1.4870134E-2,-5.400356E-3,-1.8532224E-2,3.6166664E-3],"categories":[],"categories_nodes":[],"categories_segments":[],"categories_sizes":[],"default_left":[0,0,0,0,0,0,0,0,0,0,0],"id":77,"left_children":[1,3,5,7,9,-1,-1,-1,-1,-1,-1],"loss_changes":[1.7363483E0,1.4715517E0,1.0031319E-1,1.7798916E0,2.0870934E0,0E0,0E0,0E0,0E0,0E0,0E0],"parents":[2147483647,0,0,1,1,2,2,3,3,4,4],"right_children":[2,4,6,8,10,-1,-1,-1,-1,-1,-1],"split_conditions":[4E0,1E0,3E1,3.5E1,3.2E1,5.5065276E-3,3.0344695E-2,1.4870134E-2,-5.400356E-3,-1.8532224E-2,3.6166664E-3],"split_indices":[1,9,0,0,0,0,0,0,0,0,0],"split_type":[0,0,0,0,0,0,0,0,0,0,0],"sum_hessian":[8.8E1,8.3E1,5E0,4.2E1,4.1E1,1E0,4E0,2.3E1,1.9E1,2E1,2.1E1],"tree_param":{"num_deleted":"0","num_feature":"11","num_nodes":"11","size_leaf_vector":"1"}},{"base_weights":[2.2117466E-2,-6.0464155E-2,4.0267512E-1,-1.1017669E-1,5.213074E-1,-2.3366164E-2,5.4663604E-1,-7.955799E-3,9.723832E-3,5.3688646E-3,2.9130897E-2,1.5494943E-2,-9.207857E-3,5.607158E-2,1.1521703E-2],"categories":[],"categories_nodes":[],"categories_segments":[],"categories_sizes":[],"default_left":[0,0,0,0,0,0,0,0,0,0,0,0,0,0,0],"id":78,"left_children":[1,3,5,7,9,11,13,-1,-1,-1,-1,-1,-1,-1,-1],"loss_changes":[2.8213565E0,2.1976151E0,9.941056E-1,1.0597007E0,8.970964E-2,3.250001E-1,1.9226019E0,0E0,0E0,0E0,0E0,0E0,0E0,0E0,0E0],"parents":[2147483647,0,0,1,1,2,2,3,3,4,4,5,5,6,6],"right_children":[2,4,6,8,10,12,14,-1,-1,-1,-1,-1,-1,-1,-1],"split_conditions":[1E0,4E0,2.9E1,4.1E1,3E1,2E0,3.5E1,-7.955799E-3,9.723832E-3,5.3688646E-3,2.9130897E-2,1.5494943E-2,-9.207857E-3,5.607158E-2,1.1521703E-2],"split_indices":[2,1,0,0,0,1,0,0,0,0,0,0,0,0,0],"split_type":[0,0,0,0,0,0,0,0,0,0,0,0,0,0,0],"sum_hessian":[8.8E1,7.3E1,1.5E1,6.8E1,5E0,4E0,1.1E1,5.9E1,9E0,1E0,4E0,1E0,3E0,3E0,8E0],"tree_param":{"num_deleted":"0","num_feature":"11","num_nodes":"15","size_leaf_vector":"1"}},{"base_weights":[2.2249263E-2,-5.6950778E-2,3.8715887E-1,-1.0464217E-1,5.00992E-1,-2.0940494E-2,5.2493703E-1,-7.564635E-3,9.286261E-3,5.234647E-3,2.796566E-2,1.5107572E-2,-8.862567E-3,5.3968888E-2,1.100963E-2],"categories":[],"categories_nodes":[],"categories_segments":[],"categories_sizes":[],"default_left":[0,0,0,0,0,0,0,0,0,0,0,0,0,0,0],"id":79,"left_children":[1,3,5,7,9,11,13,-1,-1,-1,-1,-1,-1,-1,-1],"loss_changes":[2.5942252E0,2.0214956E0,9.1062737E-1,9.627585E-1,8.011985E-2,3.060706E-1,1.789882E0,0E0,0E0,0E0,0E0,0E0,0E0,0E0,0E0],"parents":[2147483647,0,0,1,1,2,2,3,3,4,4,5,5,6,6],"right_children":[2,4,6,8,10,12,14,-1,-1,-1,-1,-1,-1,-1,-1],"split_conditions":[1E0,4E0,2.9E1,4.1E1,3E1,2E0,3.5E1,-7.564635E-3,9.286261E-3,5.234647E-3,2.796566E-2,1.5107572E-2,-8.862567E-3,5.3968888E-2,1.100963E-2],"split_indices":[2,1,0,0,0,1,0,0,0,0,0,0,0,0,0],"split_type":[0,0,0,0,0,0,0,0,0,0,0,0,0,0,0],"sum_hessian":[8.8E1,7.3E1,1.5E1,6.8E1,5E0,4E0,1.1E1,5.9E1,9E0,1E0,4E0,1E0,3E0,3E0,8E0],"tree_param":{"num_deleted":"0","num_feature":"11","num_nodes":"15","size_leaf_vector":"1"}},{"base_weights":[2.2329396E-2,-5.3631388E-2,3.7225243E-1,-9.938519E-2,2.4073793E-2,2.5778998E-2,2.3721657E-3,-5.5058748E-3,3.0005933E-3],"categories":[],"categories_nodes":[],"categories_segments":[],"categories_sizes":[],"default_left":[0,0,0,0,0,0,0,0,0],"id":80,"left_children":[1,3,5,7,-1,-1,-1,-1,-1],"loss_changes":[2.3856225E0,1.8596073E0,7.204044E-1,1.24646485E-1,0E0,0E0,0E0,0E0,0E0],"parents":[2147483647,0,0,1,1,2,2,3,3],"right_children":[2,4,6,8,-1,-1,-1,-1,-1],"split_conditions":[1E0,4E0,2E0,2E0,2.4073793E-2,2.5778998E-2,2.3721657E-3,-5.5058748E-3,3.0005933E-3],"split_indices":[2,1,1,1,0,0,0,0,0],"split_type":[0,0,0,0,0,0,0,0,0],"sum_hessian":[8.8E1,7.3E1,1.5E1,6.8E1,5E0,1E1,5E0,6.4E1,4E0],"tree_param":{"num_deleted":"0","num_feature":"11","num_nodes":"9","size_leaf_vector":"1"}},{"base_weights":[2.1771623E-2,-7.1159266E-3,5.0850564E-1,-4.216676E-2,2.3070725E-2,4.7143426E-2,-9.535917E-2,-7.859799E-4,-3.5786867E-2,-2.0025326E-2,1.2873388E-2],"categories":[],"categories_nodes":[],"categories_segments":[],"categories_sizes":[],"default_left":[0,0,0,0,0,0,0,0,0,0,0],"id":81,"left_children":[1,3,5,7,-1,-1,9,-1,-1,-1,-1],"loss_changes":[1.2550076E0,1.4153589E0,1.4013937E0,1.4138713E0,0E0,0E0,4.2611006E-1,0E0,0E0,0E0,0E0],"parents":[2147483647,0,0,1,1,2,2,3,3,6,6],"right_children":[2,4,6,8,-1,-1,10,-1,-1,-1,-1],"split_conditions":[1E0,4E0,2E0,1E0,2.3070725E-2,4.7143426E-2,1E0,-7.859799E-4,-3.5786867E-2,-2.0025326E-2,1.2873388E-2],"split_indices":[3,1,1,4,0,0,6,0,0,0,0],"split_type":[0,0,0,0,0,0,0,0,0,0,0],"sum_hessian":[8.8E1,8.4E1,4E0,7.9E1,5E0,2E0,2E0,7.7E1,2E0,1E0,1E0],"tree_param":{"num_deleted":"0","num_feature":"11","num_nodes":"11","size_leaf_vector":"1"}},{"base_weights":[2.0980665E-2,-5.1121213E-2,3.5314056E-1,-7.2037384E-2,1.6646057E-2,1.5088468E-2,2.8092718E-2,-4.165758E-3,1.7935157E-2],"categories":[],"categories_nodes":[],"categories_segments":[],"categories_sizes":[],"default_left":[0,0,0,0,0,0,0,0,0],"id":82,"left_children":[1,3,5,7,-1,-1,-1,-1,-1],"loss_changes":[2.1495454E0,6.1840224E-1,1.9996166E-3,3.7478855E-1,0E0,0E0,0E0,0E0,0E0],"parents":[2147483647,0,0,1,1,2,2,3,3],"right_children":[2,4,6,8,-1,-1,-1,-1,-1],"split_conditions":[1E0,1E0,1E0,1E0,1.6646057E-2,1.5088468E-2,2.8092718E-2,-4.165758E-3,1.7935157E-2],"split_indices":[2,3,3,7,0,0,0,0,0],"split_type":[0,0,0,0,0,0,0,0,0],"sum_hessian":[8.8E1,7.3E1,1.5E1,7E1,3E0,1.4E1,1E0,6.9E1,1E0],"tree_param":{"num_deleted":"0","num_feature":"11","num_nodes":"9","size_leaf_vector":"1"}},{"base_weights":[2.0758485E-2,-4.8154224E-2,3.3818236E-1,-9.0076454E-2,2.2098856E-2,2.3680145E-2,1.677382E-3,-6.070388E-3,3.1984083E-2],"categories":[],"categories_nodes":[],"categories_segments":[],"categories_sizes":[],"default_left":[0,0,0,0,0,0,0,0,0],"id":83,"left_children":[1,3,5,7,-1,-1,-1,-1,-1],"loss_changes":[1.9631189E0,1.560319E0,6.4417267E-1,1.6552975E0,0E0,0E0,0E0,0E0,0E0],"parents":[2147483647,0,0,1,1,2,2,3,3],"right_children":[2,4,6,8,-1,-1,-1,-1,-1],"split_conditions":[1E0,4E0,2E0,1E0,2.2098856E-2,2.3680145E-2,1.677382E-3,-6.070388E-3,3.1984083E-2],"split_indices":[2,1,1,6,0,0,0,0,0],"split_type":[0,0,0,0,0,0,0,0,0],"sum_hessian":[8.8E1,7.3E1,1.5E1,6.8E1,5E0,1E1,5E0,6.6E1,2E0],"tree_param":{"num_deleted":"0","num_feature":"11","num_nodes":"9","size_leaf_vector":"1"}},{"base_weights":[2.054501E-2,-8.486471E-3,2.117808E-2,1.0966733E-2,-2.2403839E-1,8.736906E-4,-5.6891325E-3,-2.3151627E-2,1.2448232E-2],"categories":[],"categories_nodes":[],"categories_segments":[],"categories_sizes":[],"default_left":[0,0,0,0,0,0,0,0,0],"id":84,"left_children":[1,3,-1,5,7,-1,-1,-1,-1],"loss_changes":[1.0449095E0,3.5468373E-1,0E0,6.530501E-2,9.065933E-1,0E0,0E0,0E0,0E0],"parents":[2147483647,0,0,1,1,3,3,4,4],"right_children":[2,4,-1,6,8,-1,-1,-1,-1],"split_conditions":[4E0,1E0,2.117808E-2,1E0,2E0,8.736906E-4,-5.6891325E-3,-2.3151627E-2,1.2448232E-2],"split_indices":[1,5,0,4,1,0,0,0,0],"split_type":[0,0,0,0,0,0,0,0,0],"sum_hessian":[8.8E1,8.3E1,5E0,7.7E1,6E0,7.4E1,3E0,4E0,2E0],"tree_param":{"num_deleted":"0","num_feature":"11","num_nodes":"9","size_leaf_vector":"1"}},{"base_weights":[1.9581325E-2,-1.2711697E-3,3.088883E-2,-3.140755E-1,7.364355E-2,-1.8377772E-2,1.3540077E-2,5.508223E-3,-1.7018026E-2],"categories":[],"categories_nodes":[],"categories_segments":[],"categories_sizes":[],"default_left":[0,0,0,0,0,0,0,0,0],"id":85,"left_children":[1,3,-1,5,7,-1,-1,-1,-1],"loss_changes":[1.110959E0,2.061857E0,0E0,6.3128054E-1,1.111002E0,0E0,0E0,0E0,0E0],"parents":[2147483647,0,0,1,1,3,3,4,4],"right_children":[2,4,-1,6,8,-1,-1,-1,-1],"split_conditions":[1E0,2.9E1,3.088883E-2,1E0,1E0,-1.8377772E-2,1.3540077E-2,5.508223E-3,-1.7018026E-2],"split_indices":[6,0,0,5,5,0,0,0,0],"split_type":[0,0,0,0,0,0,0,0,0],"sum_hessian":[8.8E1,8.6E1,2E0,1.6E1,7E1,1.5E1,1E0,6.5E1,5E0],"tree_param":{"num_deleted":"0","num_feature":"11","num_nodes":"9","size_leaf_vector":"1"}},{"base_weights":[1.8765576E-2,-4.66475E-2,3.201282E-1,-1.0745229E-1,2.4693283E-1,-3.7103556E-2,4.4229743E-1,-1.7539749E-3,-1.4120734E-2,1.53055E-2,1.862836E-3,6.2823854E-3,-9.374348E-3,4.9314667E-2,7.5688655E-3],"categories":[],"categories_nodes":[],"categories_segments":[],"categories_sizes":[],"default_left":[0,0,0,0,0,0,0,0,0,0,0,0,0,0,0],"id":86,"left_children":[1,3,5,7,9,11,13,-1,-1,-1,-1,-1,-1,-1,-1],"loss_changes":[1.7693951E0,1.3475142E0,7.1469426E-1,7.751691E-1,1.4989984E-1,1.4593275E-1,1.74981E0,0E0,0E0,0E0,0E0,0E0,0E0,0E0,0E0],"parents":[2147483647,0,0,1,1,2,2,3,3,4,4,5,5,6,6],"right_children":[2,4,6,8,10,12,14,-1,-1,-1,-1,-1,-1,-1,-1],"split_conditions":[1E0,4.1E1,2.9E1,3.5E1,1E0,2.7E1,3.5E1,-1.7539749E-3,-1.4120734E-2,1.53055E-2,1.862836E-3,6.2823854E-3,-9.374348E-3,4.9314667E-2,7.5688655E-3],"split_indices":[2,0,0,0,8,0,0,0,0,0,0,0,0,0,0],"split_type":[0,0,0,0,0,0,0,0,0,0,0,0,0,0,0],"sum_hessian":[8.8E1,7.3E1,1.5E1,6.1E1,1.2E1,4E0,1.1E1,4.4E1,1.7E1,9E0,3E0,2E0,2E0,3E0,8E0],"tree_param":{"num_deleted":"0","num_feature":"11","num_nodes":"15","size_leaf_vector":"1"}},{"base_weights":[1.8446198E-2,-4.4297673E-2,3.074837E-1,-7.0459545E-2,2.9917661E-2,1.2872512E-2,2.6449634E-2,-4.9155075E-3,8.231702E-3],"categories":[],"categories_nodes":[],"categories_segments":[],"categories_sizes":[],"default_left":[0,0,0,0,0,0,0,0,0],"id":87,"left_children":[1,3,5,7,-1,-1,-1,-1,-1],"loss_changes":[1.6276653E0,1.2863182E0,4.1136265E-2,4.876051E-1,0E0,0E0,0E0,0E0,0E0],"parents":[2147483647,0,0,1,1,2,2,3,3],"right_children":[2,4,6,8,-1,-1,-1,-1,-1],"split_conditions":[1E0,1E0,1E0,1E0,2.9917661E-2,1.2872512E-2,2.6449634E-2,-4.9155075E-3,8.231702E-3],"split_indices":[2,6,3,4,0,0,0,0,0],"split_type":[0,0,0,0,0,0,0,0,0],"sum_hessian":[8.8E1,7.3E1,1.5E1,7.1E1,2E0,1.4E1,1E0,6.4E1,7E0],"tree_param":{"num_deleted":"0","num_feature":"11","num_nodes":"9","size_leaf_vector":"1"}},{"base_weights":[1.8339122E-2,-4.8235557E-3,5.117519E-1,-3.222353E-2,4.4550076E-1,2.1896267E-1,3.475299E-2,-2.4472086E-2,-1.2507767E-4,4.375457E-2,-6.6295066E-3,7.872582E-5,1.6343474E-2],"categories":[],"categories_nodes":[],"categories_segments":[],"categories_sizes":[],"default_left":[0,0,0,0,0,0,0,0,0,0,0,0,0],"id":88,"left_children":[1,3,5,7,9,11,-1,-1,-1,-1,-1,-1,-1],"loss_changes":[1.0196282E0,1.0754988E0,6.2490225E-2,1.1131088E0,1.3577406E0,6.985834E-2,0E0,0E0,0E0,0E0,0E0,0E0,0E0],"parents":[2147483647,0,0,1,1,2,2,3,3,4,4,5,5],"right_children":[2,4,6,8,10,12,-1,-1,-1,-1,-1,-1,-1],"split_conditions":[5.5E1,1E0,6.2E1,2.6E1,2E0,5E1,3.475299E-2,-2.4472086E-2,-1.2507767E-4,4.375457E-2,-6.6295066E-3,7.872582E-5,1.6343474E-2],"split_indices":[0,3,0,0,1,1,0,0,0,0,0,0,0],"split_type":[0,0,0,0,0,0,0,0,0,0,0,0,0],"sum_hessian":[8.8E1,8.5E1,3E0,8.1E1,4E0,2E0,1E0,4E0,7.7E1,2E0,2E0,1E0,1E0],"tree_param":{"num_deleted":"0","num_feature":"11","num_nodes":"13","size_leaf_vector":"1"}},{"base_weights":[1.813791E-2,-4.083669E-2,2.897618E-1,-9.8487474E-2,2.3725447E-1,-4.6065044E-2,4.0554285E-1,-1.4837275E-3,-1.3252414E-2,1.3536756E-2,-4.112828E-3,-9.43768E-3,1.31172305E-2,4.6987332E-2,6.152932E-3],"categories":[],"categories_nodes":[],"categories_segments":[],"categories_sizes":[],"default_left":[0,0,0,0,0,0,0,0,0,0,0,0,0,0,0],"id":89,"left_children":[1,3,5,7,9,11,13,-1,-1,-1,-1,-1,-1,-1,-1],"loss_changes":[1.4375159E0,1.2097473E0,6.407995E-1,7.027499E-1,1.6133636E-1,2.6955113E-1,1.6952056E0,0E0,0E0,0E0,0E0,0E0,0E0,0E0,0E0],"parents":[2147483647,0,0,1,1,2,2,3,3,4,4,5,5,6,6],"right_children":[2,4,6,8,10,12,14,-1,-1,-1,-1,-1,-1,-1,-1],"split_conditions":[1E0,4.1E1,2.9E1,3.5E1,1E0,1E0,3.5E1,-1.4837275E-3,-1.3252414E-2,1.3536756E-2,-4.112828E-3,-9.43768E-3,1.31172305E-2,4.6987332E-2,6.152932E-3],"split_indices":[2,0,0,0,5,5,0,0,0,0,0,0,0,0,0],"split_type":[0,0,0,0,0,0,0,0,0,0,0,0,0,0,0],"sum_hessian":[8.8E1,7.3E1,1.5E1,6.1E1,1.2E1,4E0,1.1E1,4.4E1,1.7E1,1.1E1,1E0,3E0,1E0,3E0,8E0],"tree_param":{"num_deleted":"0","num_feature":"11","num_nodes":"15","size_leaf_vector":"1"}},{"base_weights":[1.780975E-2,-1.8376907E-3,2.9082451E-2,1.5241065E-2,-9.960039E-3,5.2157366E-3,-2.9167985E-3],"categories":[],"categories_nodes":[],"categories_segments":[],"categories_sizes":[],"default_left":[0,0,0,0,0,0,0],"id":90,"left_children":[1,3,-1,5,-1,-1,-1],"loss_changes":[9.870108E-1,2.9628828E-1,0E0,5.369411E-1,0E0,0E0,0E0],"parents":[2147483647,0,0,1,1,3,3],"right_children":[2,4,-1,6,-1,-1,-1],"split_conditions":[1E0,1E0,2.9082451E-2,1E0,-9.960039E-3,5.2157366E-3,-2.9167985E-3],"split_indices":[6,5,0,9,0,0,0],"split_type":[0,0,0,0,0,0,0],"sum_hessian":[8.8E1,8.6E1,2E0,8E1,6E0,3.6E1,4.4E1],"tree_param":{"num_deleted":"0","num_feature":"11","num_nodes":"7","size_leaf_vector":"1"}},{"base_weights":[1.7159998E-2,-6.81863E-3,4.213647E-1,-3.5939626E-2,1.912989E-2,4.2044412E-2,-6.930685E-3,1.6849164E-3,-4.9873865E-3],"categories":[],"categories_nodes":[],"categories_segments":[],"categories_sizes":[],"default_left":[0,0,0,0,0,0,0,0,0],"id":91,"left_children":[1,3,5,7,-1,-1,-1,-1,-1],"loss_changes":[8.654855E-1,9.7766685E-1,1.2911791E0,3.588386E-1,0E0,0E0,0E0,0E0,0E0],"parents":[2147483647,0,0,1,1,2,2,3,3],"right_children":[2,4,6,8,-1,-1,-1,-1,-1],"split_conditions":[1E0,4E0,2E0,1E0,1.912989E-2,4.2044412E-2,-6.930685E-3,1.6849164E-3,-4.9873865E-3],"split_indices":[3,1,1,9,0,0,0,0,0],"split_type":[0,0,0,0,0,0,0,0,0],"sum_hessian":[8.8E1,8.4E1,4E0,7.9E1,5E0,2E0,2E0,3.8E1,4.1E1],"tree_param":{"num_deleted":"0","num_feature":"11","num_nodes":"9","size_leaf_vector":"1"}},{"base_weights":[1.6874311E-2,-3.8252536E-2,2.7078134E-1,-9.245798E-2,2.2320825E-1,-4.5511436E-2,3.8000488E-1,-1.3697003E-3,-1.2499068E-2,1.4191863E-2,7.916808E-4,5.732608E-3,-9.525227E-3,4.496652E-2,5.3485394E-3],"categories":[],"categories_nodes":[],"categories_segments":[],"categories_sizes":[],"default_left":[0,0,0,0,0,0,0,0,0,0,0,0,0,0,0],"id":92,"left_children":[1,3,5,7,9,11,13,-1,-1,-1,-1,-1,-1,-1,-1],"loss_changes":[1.2560995E0,1.0694097E0,5.7004035E-1,6.2859595E-1,1.5895373E-1,1.3795485E-1,1.6053208E0,0E0,0E0,0E0,0E0,0E0,0E0,0E0,0E0],"parents":[2147483647,0,0,1,1,2,2,3,3,4,4,5,5,6,6],"right_children":[2,4,6,8,10,12,14,-1,-1,-1,-1,-1,-1,-1,-1],"split_conditions":[1E0,4.1E1,2.9E1,3.5E1,1E0,2.7E1,3.5E1,-1.3697003E-3,-1.2499068E-2,1.4191863E-2,7.916808E-4,5.732608E-3,-9.525227E-3,4.496652E-2,5.3485394E-3],"split_indices":[2,0,0,0,8,0,0,0,0,0,0,0,0,0,0],"split_type":[0,0,0,0,0,0,0,0,0,0,0,0,0,0,0],"sum_hessian":[8.8E1,7.3E1,1.5E1,6.1E1,1.2E1,4E0,1.1E1,4.4E1,1.7E1,9E0,3E0,2E0,2E0,3E0,8E0],"tree_param":{"num_deleted":"0","num_feature":"11","num_nodes":"15","size_leaf_vector":"1"}},{"base_weights":[1.6565807E-2,-3.6324892E-2,2.6014993E-1,-6.0872342E-2,2.8246108E-2,1.8467778E-2,1.6581297E-2,-4.8927693E-3,1.8112516E-2,-4.2988444E-3,1.3234305E-2],"categories":[],"categories_nodes":[],"categories_segments":[],"categories_sizes":[],"default_left":[0,0,0,0,0,0,0,0,0,0,0],"id":93,"left_children":[1,3,5,7,-1,-1,9,-1,-1,-1,-1],"loss_changes":[1.1560665E0,1.1265602E0,4.1946065E-1,1.1621302E0,0E0,0E0,1.7542796E-1,0E0,0E0,0E0,0E0],"parents":[2147483647,0,0,1,1,2,2,3,3,6,6],"right_children":[2,4,6,8,-1,-1,10,-1,-1,-1,-1],"split_conditions":[1E0,1E0,2E0,4E0,2.8246108E-2,1.8467778E-2,1E0,-4.8927693E-3,1.8112516E-2,-4.2988444E-3,1.3234305E-2],"split_indices":[2,6,1,1,0,0,5,0,0,0,0],"split_type":[0,0,0,0,0,0,0,0,0,0,0],"sum_hessian":[8.8E1,7.3E1,1.5E1,7.1E1,2E0,1E1,5E0,6.6E1,5E0,4E0,1E0],"tree_param":{"num_deleted":"0","num_feature":"11","num_nodes":"11","size_leaf_vector":"1"}},{"base_weights":[1.6511371E-2,-6.2225326E-3,1.9984273E-2,-1.3208638E-2,1.4515257E-2,1.2696212E-3,-2.3613584E-3],"categories":[],"categories_nodes":[],"categories_segments":[],"categories_sizes":[],"default_left":[0,0,0,0,0,0,0],"id":94,"left_children":[1,3,-1,5,-1,-1,-1],"loss_changes":[7.777699E-1,1.7991827E-1,0E0,1.1150393E-1,0E0,0E0,0E0],"parents":[2147483647,0,0,1,1,3,3],"right_children":[2,4,-1,6,-1,-1,-1],"split_conditions":[1E0,1E0,1.9984273E-2,1E0,1.4515257E-2,1.2696212E-3,-2.3613584E-3],"split_indices":[3,7,0,9,0,0,0],"split_type":[0,0,0,0,0,0,0],"sum_hessian":[8.8E1,8.4E1,4E0,8.3E1,1E0,3.9E1,4.4E1],"tree_param":{"num_deleted":"0","num_feature":"11","num_nodes":"7","size_leaf_vector":"1"}},{"base_weights":[1.6061082E-2,-5.7535777E-3,3.8369808E-1,-3.2041177E-2,1.7285336E-2,3.9684217E-2,-7.709376E-3,-8.338454E-4,-9.494308E-3],"categories":[],"categories_nodes":[],"categories_segments":[],"categories_sizes":[],"default_left":[0,0,0,0,0,0,0,0,0],"id":95,"left_children":[1,3,5,7,-1,-1,-1,-1,-1],"loss_changes":[7.159766E-1,7.963959E-1,1.2250047E0,1.9084713E-1,0E0,0E0,0E0,0E0,0E0],"parents":[2147483647,0,0,1,1,2,2,3,3],"right_children":[2,4,6,8,-1,-1,-1,-1,-1],"split_conditions":[1E0,4E0,2E0,1E0,1.7285336E-2,3.9684217E-2,-7.709376E-3,-8.338454E-4,-9.494308E-3],"split_indices":[3,1,1,5,0,0,0,0,0],"split_type":[0,0,0,0,0,0,0,0,0],"sum_hessian":[8.8E1,8.4E1,4E0,7.9E1,5E0,2E0,2E0,7.3E1,6E0],"tree_param":{"num_deleted":"0","num_feature":"11","num_nodes":"9","size_leaf_vector":"1"}},{"base_weights":[1.569547E-2,-3.415776E-2,1.2264284E-2,-1.0595282E-2,-1.4971666E-2,-9.410915E-4,1.3720251E-2],"categories":[],"categories_nodes":[],"categories_segments":[],"categories_sizes":[],"default_left":[0,0,0,0,0,0,0],"id":96,"left_children":[1,3,-1,5,-1,-1,-1],"loss_changes":[1.0270559E0,4.5936808E-1,0E0,1.6694005E-1,0E0,0E0,0E0],"parents":[2147483647,0,0,1,1,3,3],"right_children":[2,4,-1,6,-1,-1,-1],"split_conditions":[1E0,1E0,1.2264284E-2,1E0,-1.4971666E-2,-9.410915E-4,1.3720251E-2],"split_indices":[2,5,0,7,0,0,0],"split_type":[0,0,0,0,0,0,0],"sum_hessian":[8.8E1,7.3E1,1.5E1,6.8E1,5E0,6.7E1,1E0],"tree_param":{"num_deleted":"0","num_feature":"11","num_nodes":"7","size_leaf_vector":"1"}},{"base_weights":[1.5023897E-2,-3.337009E-3,5.424822E-1,-2.7660705E-2,1.648215E-2,3.215474E-2,8.531428E-3,1.5328175E-3,-4.1965335E-3],"categories":[],"categories_nodes":[],"categories_segments":[],"categories_sizes":[],"default_left":[0,0,0,0,0,0,0,0,0],"id":97,"left_children":[1,3,5,7,-1,-1,-1,-1,-1],"loss_changes":[8.6374086E-1,7.1375763E-1,2.5090575E-3,2.716559E-1,0E0,0E0,0E0,0E0,0E0],"parents":[2147483647,0,0,1,1,2,2,3,3],"right_children":[2,4,6,8,-1,-1,-1,-1,-1],"split_conditions":[1E0,4E0,2E0,1E0,1.648215E-2,3.215474E-2,8.531428E-3,1.5328175E-3,-4.1965335E-3],"split_indices":[6,1,1,9,0,0,0,0,0],"split_type":[0,0,0,0,0,0,0,0,0],"sum_hessian":[8.8E1,8.6E1,2E0,8.1E1,5E0,1E0,1E0,4E1,4.1E1],"tree_param":{"num_deleted":"0","num_feature":"11","num_nodes":"9","size_leaf_vector":"1"}},{"base_weights":[1.48850735E-2,-3.23357E-2,2.3235083E-1,-4.7714446E-2,2.48721E-1,9.601756E-3,2.0927167E-2,-3.217073E-3,4.4427763E-4,-7.58876E-3,3.625524E-2],"categories":[],"categories_nodes":[],"categories_segments":[],"categories_sizes":[],"default_left":[0,0,0,0,0,0,0,0,0,0,0],"id":98,"left_children":[1,3,5,7,9,-1,-1,-1,-1,-1,-1],"loss_changes":[9.214454E-1,3.317178E-1,3.972876E-2,6.738901E-2,8.732126E-1,0E0,0E0,0E0,0E0,0E0,0E0],"parents":[2147483647,0,0,1,1,2,2,3,3,4,4],"right_children":[2,4,6,8,10,-1,-1,-1,-1,-1,-1],"split_conditions":[1E0,1E0,1E0,1E0,1E0,9.601756E-3,2.0927167E-2,-3.217073E-3,4.4427763E-4,-7.58876E-3,3.625524E-2],"split_indices":[2,3,3,8,4,0,0,0,0,0,0],"split_type":[0,0,0,0,0,0,0,0,0,0,0],"sum_hessian":[8.8E1,7.3E1,1.5E1,7E1,3E0,1.4E1,1E0,5.4E1,1.6E1,2E0,1E0],"tree_param":{"num_deleted":"0","num_feature":"11","num_nodes":"11","size_leaf_vector":"1"}},{"base_weights":[1.477475E-2,-3.0369064E-2,2.2264147E-1,-4.5367848E-2,2.434516E-1,9.153681E-3,2.0403981E-2,-3.0591465E-3,4.2336408E-4,-7.335806E-3,3.534887E-2],"categories":[],"categories_nodes":[],"categories_segments":[],"categories_sizes":[],"default_left":[0,0,0,0,0,0,0,0,0,0,0],"id":99,"left_children":[1,3,5,7,9,-1,-1,-1,-1,-1,-1],"loss_changes":[8.4192824E-1,3.1496117E-1,4.268962E-2,6.0967937E-2,8.2713604E-1,0E0,0E0,0E0,0E0,0E0,0E0],"parents":[2147483647,0,0,1,1,2,2,3,3,4,4],"right_children":[2,4,6,8,10,-1,-1,-1,-1,-1,-1],"split_conditions":[1E0,1E0,1E0,1E0,1E0,9.153681E-3,2.0403981E-2,-3.0591465E-3,4.2336408E-4,-7.335806E-3,3.534887E-2],"split_indices":[2,3,3,8,4,0,0,0,0,0,0],"split_type":[0,0,0,0,0,0,0,0,0,0,0],"sum_hessian":[8.8E1,7.3E1,1.5E1,7E1,3E0,1.4E1,1E0,5.4E1,1.6E1,2E0,1E0],"tree_param":{"num_deleted":"0","num_feature":"11","num_nodes":"11","size_leaf_vector":"1"}}]},"name":"gbtree"},"learner_model_param":{"base_score":"4.706818E0","boost_from_average":"1","num_class":"0","num_feature":"11","num_target":"1"},"objective":{"name":"reg:squarederror","reg_loss_param":{"scale_pos_weight":"1"}}},"version":[2,1,1]}